<?xml version="1.0"?>
<opencv_storage>
<my_svm type_id="opencv-ml-svm">
  <svm_type>C_SVC</svm_type>
  <kernel><type>LINEAR</type></kernel>
  <C>1.0000000000000001e-001</C>
  <term_criteria><epsilon>2.2204460492503131e-016</epsilon>
    <iterations>10000000</iterations></term_criteria>
  <var_all>1344</var_all>
  <var_count>1344</var_count>
  <class_count>5</class_count>
  <class_labels type_id="opencv-matrix">
    <rows>1</rows>
    <cols>5</cols>
    <dt>i</dt>
    <data>
      0 1 2 3 4</data></class_labels>
  <sv_total>10</sv_total>
  <support_vectors>
    <_>
      2.40440783e-003 -2.62076827e-003 3.19257902e-004 -1.02896527e-004
      -2.34284601e-003 7.80949253e-004 7.80949253e-004 7.80949253e-004
      -1.99021772e-003 6.63406565e-004 6.63406565e-004 6.63406565e-004
      -1.79699529e-003 4.61304706e-004 1.22877571e-003 1.06913038e-004
      -1.92028540e-003 6.93828159e-004 1.14597438e-003 8.04811643e-005
      -5.61871311e-005 1.87279711e-005 1.87279711e-005 1.87279711e-005
      8.54521582e-004 -3.39160106e-005 -5.64160990e-004 -2.56449071e-004
      -1.00452099e-002 9.51306149e-003 3.43421038e-004 1.88734470e-004
      -2.53871869e-004 9.68390086e-004 1.68092758e-003 -2.39544897e-003
      -1.15460716e-003 3.84868064e-004 3.84868064e-004 3.84868064e-004
      -1.25049194e-003 4.16831084e-004 4.16831084e-004 4.16831084e-004
      -1.08002825e-002 -1.96095812e-003 1.20947976e-002 6.66444306e-004
      5.29589551e-003 -1.39104540e-003 8.09018966e-003 -1.19950436e-002
      -3.19453375e-003 2.19000317e-003 5.02267503e-004 5.02267503e-004
      -5.91348298e-003 5.14210574e-003 1.60534494e-003 -8.33964557e-004
      -2.24793088e-002 1.54756512e-002 1.57617405e-003 5.42748440e-003
      7.90183526e-003 4.52303095e-004 -7.20014359e-005 -8.28213803e-003
      -3.28750862e-003 8.43399146e-004 1.22205645e-003 1.22205645e-003
      -1.93119200e-003 6.43730105e-004 6.43730105e-004 6.43730105e-004
      -1.17418701e-002 3.44720064e-003 1.62602272e-002 -7.96556193e-003
      9.87461396e-003 -1.40910584e-003 1.56664327e-002 -2.41319370e-002
      -4.55851725e-004 1.01036904e-003 -2.77260202e-004 -2.77260202e-004
      -7.00784335e-003 1.08324853e-003 5.15452167e-003 7.70073675e-004
      -4.10633488e-003 3.49990558e-003 -1.78555760e-003 2.39198958e-003
      4.09449264e-003 4.01741592e-003 9.96219926e-003 -1.80741083e-002
      -7.92065286e-004 2.64021481e-004 2.64021481e-004 2.64021481e-004
      -2.17125122e-003 7.23750505e-004 7.23750505e-004 7.23750505e-004
      -6.37816591e-003 -5.22506889e-004 1.59604866e-002 -9.05981287e-003
      5.93889272e-003 1.07314823e-004 1.47176953e-002 -2.07638983e-002
      1.78784889e-003 -3.54685355e-004 -7.16580951e-004 -7.16580951e-004
      -6.90699508e-003 5.82567416e-003 -9.31566465e-005 1.17447879e-003
      -7.91842770e-003 4.59538819e-003 5.59185212e-003 -2.26881262e-003
      -2.79153185e-003 2.75282026e-003 1.94854960e-002 -1.94467865e-002
      -1.16435466e-002 4.98868932e-004 2.72581028e-003 8.41886085e-003
      -1.81021588e-003 6.03406108e-004 6.03406108e-004 6.03406108e-004
      4.69382247e-003 -3.78064625e-003 1.05992546e-002 -1.15124322e-002
      6.38805376e-003 3.59358033e-003 6.88908435e-003 -1.68707203e-002
      1.48501282e-003 -2.07574060e-003 2.95363745e-004 2.95363745e-004
      -8.93819798e-003 7.39340344e-003 1.57568068e-003 -3.08845847e-005
      -2.26279963e-002 6.53500576e-003 2.12365836e-002 -5.14359260e-003
      -2.51984932e-002 1.05402432e-002 1.38753261e-002 7.82921328e-004
      -2.60474738e-002 1.05256238e-003 3.43606644e-003 2.15588417e-002
      -1.93242496e-003 1.20252895e-003 3.64948675e-004 3.64948675e-004
      -2.22536270e-003 1.19952029e-002 3.18685663e-003 -1.29566994e-002
      3.75350792e-004 1.87227577e-002 2.59284745e-003 -2.16909572e-002
      -4.91004344e-003 5.01627894e-003 5.60625107e-004 -6.66864740e-004
      -8.91917292e-003 1.07602337e-002 -3.97775351e-004 -1.44328759e-003
      -1.88170113e-002 2.24528182e-002 2.16930397e-002 -2.53288504e-002
      -1.11998720e-002 5.88719174e-003 -4.14799713e-003 9.46068019e-003
      -7.10755633e-003 2.36918475e-003 2.36918475e-003 2.36918475e-003
      6.09726040e-003 -8.63972935e-004 -2.61664554e-003 -2.61664554e-003
      5.28371055e-003 4.40000789e-003 3.82538303e-003 -1.35091012e-002
      1.06462846e-002 6.81767799e-003 -2.27827090e-003 -1.51856896e-002
      -2.94932979e-003 7.99685251e-003 -1.65175833e-003 -3.39576486e-003
      -3.12761380e-003 5.98082179e-003 -1.21401274e-003 -1.63919688e-003
      -2.65001301e-002 3.32848281e-002 8.08546413e-003 -1.48701668e-002
      8.95956997e-003 -1.18067686e-003 -2.40167300e-003 -5.37721859e-003
      2.22836086e-003 -7.42785807e-004 -7.42785807e-004 -7.42785807e-004
      6.37663808e-003 -1.03071076e-003 -1.93600031e-003 -3.40993027e-003
      1.80623261e-003 8.99764709e-003 -9.28752066e-004 -9.87512805e-003
      1.51201487e-002 1.47239224e-003 -3.65382549e-003 -1.29387137e-002
      2.33482476e-002 -9.01050400e-003 -7.61903357e-003 -6.71871286e-003
      1.25175882e-002 6.09824387e-003 -9.30791534e-003 -9.30791534e-003
      4.05983673e-003 1.66701023e-002 -1.07039791e-002 -1.00259576e-002
      -9.00847279e-003 1.99176092e-003 1.72409918e-002 -1.02242781e-002
      -5.05025173e-003 2.69626081e-003 1.17699453e-003 1.17699453e-003
      -9.25922708e-004 3.08641960e-004 3.08641960e-004 3.08641960e-004
      4.60508559e-003 -6.23008283e-003 5.75473951e-003 -4.12973762e-003
      -7.16224499e-003 9.75417532e-003 7.21294433e-003 -9.80488211e-003
      3.15058930e-003 -1.05019682e-003 -1.05019682e-003 -1.05019682e-003
      5.92968427e-003 -1.10981299e-003 -2.40993267e-003 -2.40993267e-003
      -1.48497354e-002 6.83089165e-005 1.67203061e-002 -1.93887809e-003
      -9.04516410e-003 2.64878292e-003 3.98500822e-002 -3.34537029e-002
      -1.02475584e-002 5.75605687e-003 2.24574958e-003 2.24574958e-003
      -2.91475211e-003 9.71584406e-004 9.71584406e-004 9.71584406e-004
      1.29962703e-002 -1.22994545e-003 2.85387281e-002 -4.03050520e-002
      -4.69514094e-002 3.06317508e-002 4.89880964e-002 -3.26684341e-002
      -9.12955613e-004 3.04318353e-004 3.04318353e-004 3.04318353e-004
      -2.01096595e-003 6.45183492e-003 -2.22043484e-003 -2.22043484e-003
      -1.89155806e-002 1.29217937e-004 3.21998335e-002 -1.34134693e-002
      -8.77323560e-003 7.50846229e-004 4.14207578e-002 -3.33983637e-002
      -5.11212740e-003 1.70404231e-003 1.70404231e-003 1.70404231e-003
      3.16251256e-002 -1.05417082e-002 -1.05417082e-002 -1.05417082e-002
      2.76640709e-003 2.70304852e-003 3.11220940e-002 -3.65915485e-002
      3.34225297e-002 -1.27671948e-002 3.33460122e-002 -5.40013462e-002
      3.13506126e-002 -1.04502039e-002 -1.04502039e-002 -1.04502039e-002
      2.58098654e-002 -8.60328879e-003 -8.60328879e-003 -8.60328879e-003
      -2.58672293e-002 7.04594830e-004 4.31348383e-002 -1.79722067e-002
      -9.66103096e-003 -2.81986385e-003 5.37083782e-002 -4.12274860e-002
      5.49508631e-003 -4.54194751e-003 5.00466442e-003 -5.95780183e-003
      -1.87559072e-002 6.25196844e-003 6.25196844e-003 6.25196844e-003
      -1.56241395e-002 4.95173223e-003 3.81936394e-002 -2.75212303e-002
      2.72504124e-003 -1.19234459e-003 3.92137952e-002 -4.07464914e-002
      -5.14333975e-003 -2.34503951e-003 -2.34503951e-003 9.83341783e-003
      2.73586280e-004 -9.10491217e-003 -9.10491217e-003 1.79362390e-002
      -7.37373624e-003 -8.54883064e-003 3.42697501e-002 -1.83471832e-002
      -1.48660783e-002 3.33996722e-004 4.70927618e-002 -3.25606801e-002
      -1.90595947e-002 7.98739959e-003 4.87252045e-003 6.19967468e-003
      -1.46477968e-002 4.88259830e-003 4.88259830e-003 4.88259830e-003
      9.82334837e-003 7.36090494e-003 2.55721007e-002 -4.27563526e-002
      -2.37485254e-003 6.20191870e-003 3.60383913e-002 -3.98654602e-002
      -4.97636199e-003 -2.64672819e-003 -8.01507151e-004 8.42459686e-003
      -5.27222082e-003 -7.77356187e-003 1.14778578e-002 1.56792649e-003
      -7.89653789e-003 -5.95156103e-003 3.65770981e-002 -2.27290001e-002
      -1.71646047e-002 1.50658144e-002 3.42152715e-002 -3.21164802e-002
      -1.45300385e-002 2.43974058e-003 9.01559740e-003 3.07469931e-003
      -1.52664701e-003 1.70449652e-002 -6.83654705e-003 -8.68176762e-003
      -3.04525369e-003 2.08107643e-002 1.66650340e-002 -3.44305448e-002
      -4.61972971e-003 1.08084707e-002 2.90184580e-002 -3.52072008e-002
      -1.46455606e-002 -1.23005721e-003 2.19890848e-002 -6.11346727e-003
      -1.52229033e-002 5.65627404e-003 1.94461867e-002 -9.87955648e-003
      -1.14646722e-002 7.41606532e-003 4.73759584e-002 -4.33273502e-002
      1.31308064e-002 2.87938435e-002 -1.93229364e-003 -3.99923585e-002
      3.72307487e-002 -1.39719658e-002 -1.39719658e-002 -9.28682089e-003
      2.84686182e-002 -9.48953908e-003 -9.48953908e-003 -9.48953908e-003
      4.16373573e-002 -2.13450333e-003 -1.26362229e-002 -2.68666316e-002
      2.67505832e-003 1.16866753e-002 1.13110645e-002 -2.56728008e-002
      -9.75613017e-004 1.36889946e-002 -1.07118860e-002 -2.00149533e-003
      -2.17633694e-003 1.29376901e-002 -1.75778512e-002 6.81649987e-003
      1.36657851e-003 3.31500843e-002 9.53061879e-003 -4.40472811e-002
      3.85680348e-002 -4.32056049e-003 -6.60821842e-003 -2.76392531e-002
      1.48949539e-002 -5.95736410e-003 -3.02933832e-003 -5.90825221e-003
      5.40642329e-002 -2.09706742e-002 -1.49019575e-002 -1.81915984e-002
      3.64402235e-002 -1.14997374e-002 -8.50243960e-003 -1.64380502e-002
      2.42926273e-002 -5.28382463e-003 -8.97038262e-003 -1.00384187e-002
      6.24029606e-004 1.56950683e-003 -2.29307613e-003 9.95385853e-005
      -8.33453238e-003 8.53634533e-003 -2.14503566e-003 1.94322376e-003
      2.71883085e-002 9.72701143e-003 -1.40845729e-002 -2.28307489e-002
      -8.70621111e-003 5.31049445e-004 1.68432109e-002 -8.66804924e-003
      -8.24834686e-003 2.74944841e-003 2.74944841e-003 2.74944841e-003
      -3.74750048e-003 1.24916772e-003 1.24916772e-003 1.24916772e-003
      -7.32597196e-004 7.16033811e-003 1.64829587e-004 -6.59257360e-003
      -3.22656729e-003 3.24442494e-003 3.93980183e-003 -3.95765807e-003
      -6.29452290e-003 1.67242915e-003 2.94966251e-003 1.67242915e-003
      -2.35969704e-002 2.30122451e-002 1.14177749e-003 -5.57053892e-004
      -1.68690402e-002 2.67783669e-003 2.53288783e-002 -1.11376783e-002
      -2.90970923e-003 -5.22832479e-003 4.45325971e-002 -3.63945626e-002
      -1.33639826e-002 4.45466023e-003 4.45466023e-003 4.45466023e-003
      1.18292924e-002 -3.94309685e-003 -3.94309685e-003 -3.94309685e-003
      -2.68004835e-002 1.14841014e-002 3.42051871e-002 -1.88888069e-002
      -3.41100059e-002 1.21028302e-002 4.38800529e-002 -2.18728818e-002
      -1.52842849e-002 -5.37211250e-004 1.63587071e-002 -5.37211250e-004
      -1.33919837e-002 -2.40450585e-003 1.49228470e-002 8.73642100e-004
      -6.52154768e-003 -2.75908434e-003 4.92261760e-002 -3.99455503e-002
      4.61816322e-003 -3.55802616e-003 3.96127924e-002 -4.06729281e-002
      -3.04706208e-003 1.01568631e-003 1.01568631e-003 1.01568631e-003
      1.18862884e-002 -3.96209629e-003 -3.96209629e-003 -3.96209629e-003
      -7.72842031e-004 1.27828552e-003 3.42565589e-002 -3.47620063e-002
      -4.91415989e-003 6.51178067e-004 4.08221669e-002 -3.65591869e-002
      -1.68368407e-002 4.27485880e-004 1.70928929e-002 -6.83541293e-004
      1.46269507e-003 -4.72362386e-003 9.45087988e-003 -6.18995167e-003
      1.36446515e-002 -1.03801964e-002 4.54816334e-002 -4.87460941e-002
      1.36425486e-002 -6.02140371e-003 3.19692679e-002 -3.95904109e-002
      -7.45009165e-003 2.48336303e-003 2.48336303e-003 2.48336303e-003
      -1.45320920e-002 4.84403037e-003 4.84403037e-003 4.84403037e-003
      -1.43529836e-003 -3.07790833e-005 3.90982181e-002 -3.76321413e-002
      -6.71000127e-003 1.36407302e-003 4.12742831e-002 -3.59283537e-002
      2.07034647e-002 -6.90115476e-003 -6.90115476e-003 -6.90115476e-003
      -6.76642731e-003 -9.34321806e-003 7.87063874e-003 8.23900476e-003
      2.47872225e-003 -6.67990465e-003 5.09960428e-002 -4.67948578e-002
      -6.52269972e-003 2.32887924e-005 3.50799821e-002 -2.85805743e-002
      -1.53943198e-002 -1.37353772e-002 4.41092849e-002 -1.49795841e-002
      -9.23484843e-003 -6.14934042e-003 2.01016571e-002 -4.71746782e-003
      -1.51473295e-003 1.32889044e-003 4.42747921e-002 -4.40889485e-002
      -1.04455266e-003 1.07031642e-003 3.85133922e-002 -3.85391563e-002
      1.51487219e-003 1.51487219e-003 1.51487219e-003 -4.54461714e-003
      -1.50777493e-002 -1.93592645e-002 5.76115120e-003 2.86758635e-002
      4.17320244e-003 1.65837619e-003 4.37523611e-002 -4.95839417e-002
      -4.15195618e-003 1.43183013e-002 2.40827613e-002 -3.42491046e-002
      8.63338541e-003 -2.42544294e-004 3.33150513e-002 -4.17058878e-002
      -3.49668157e-003 4.92855441e-003 2.06480920e-003 -3.49668157e-003
      -9.81894787e-004 1.06639983e-002 3.11357304e-002 -4.08178344e-002
      -1.15512207e-003 9.88953561e-003 2.44140625e-002 -3.31484750e-002
      -3.32448934e-003 1.47998314e-002 2.37352401e-003 -1.38488654e-002
      -5.12735406e-003 -1.23990106e-003 -1.62096303e-002 2.25768834e-002
      -5.17489994e-003 4.69776429e-003 2.06035152e-002 -2.01263763e-002
      5.68797113e-004 2.08504386e-002 9.53811128e-003 -3.09573468e-002
      3.47828157e-002 -4.19992805e-002 2.02351552e-003 5.19294804e-003
      8.69983993e-003 2.11078464e-003 2.11078464e-003 -1.29214097e-002
      7.59932864e-003 1.77155677e-002 4.75705601e-003 -3.00719533e-002
      3.93932598e-004 2.52662841e-002 3.89437843e-003 -2.95545962e-002
      -4.76306444e-003 8.27254914e-003 -4.16050246e-003 6.51020848e-004
      -2.40351050e-003 -1.27213839e-002 1.32897380e-003 1.37959225e-002
      1.67946878e-003 1.48318522e-002 2.43030186e-003 -1.89416185e-002
      2.42331643e-002 -4.54056961e-003 -7.74218421e-003 -1.19504118e-002
      3.45716104e-002 -3.66434865e-002 5.79947000e-003 -3.72759113e-003
      3.08296140e-002 -1.81448665e-002 2.08750251e-003 -1.47722503e-002
      1.52907576e-002 7.17985583e-003 -4.05710656e-003 -1.84135083e-002
      1.75669491e-002 6.85039815e-003 -9.01389681e-003 -1.54034505e-002
      3.49035487e-002 -2.22011637e-002 -7.91807473e-003 -4.78431350e-003
      2.05733441e-002 -1.55990766e-002 -7.50513654e-003 2.53087096e-003
      3.85801680e-002 -2.24827100e-002 -7.53135001e-003 -8.56610760e-003
      -4.86699573e-004 5.39215805e-004 -2.21588271e-004 1.69072839e-004
      -2.49166810e-003 8.30555160e-004 8.30555160e-004 8.30555160e-004
      -2.70258286e-003 9.00859188e-004 9.00859188e-004 9.00859188e-004
      -5.82791818e-003 5.89627586e-003 -1.17098869e-004 4.87422913e-005
      5.91259683e-003 -3.98356980e-003 -7.07480183e-004 -1.22154236e-003
      -1.36928922e-002 1.16561633e-002 2.34524277e-003 -3.08512215e-004
      9.57858749e-004 -5.88163210e-004 -1.84847930e-004 -1.84847930e-004
      -4.77351900e-003 2.72945384e-003 2.02128035e-003 2.27837081e-005
      -1.43645294e-002 2.61271838e-003 1.28225097e-002 -1.07069511e-003
      -5.48997778e-004 1.82999283e-004 1.82999283e-004 1.82999283e-004
      -2.61006178e-004 8.70026852e-005 8.70026852e-005 8.70026852e-005
      -7.46642705e-003 9.23716091e-003 -8.71103839e-004 -8.99630366e-004
      4.01718682e-003 1.89633935e-003 -5.16490662e-004 -5.39703388e-003
      -1.92280691e-002 7.68045848e-003 1.05051287e-002 1.04248349e-003
      -1.14266144e-003 -4.87912796e-004 8.15287523e-004 8.15287523e-004
      -1.20927440e-003 2.85397377e-003 1.43207656e-002 -1.59654655e-002
      1.01812640e-002 -3.93751822e-003 1.39509281e-002 -2.01946758e-002
      6.07866212e-004 -2.02621392e-004 -2.02621392e-004 -2.02621392e-004
      1.74767384e-003 -5.82561130e-004 -5.82561130e-004 -5.82561130e-004
      1.28091378e-002 -4.21739370e-003 -9.64713283e-004 -7.62703689e-003
      5.54668531e-003 -8.66376096e-004 -2.14151078e-005 -4.65889461e-003
      -1.22156115e-002 5.88554470e-003 4.89626825e-003 1.43380184e-003
      -7.12045981e-003 4.14197613e-003 3.36943241e-003 -3.90947680e-004
      1.06138801e-002 5.53668756e-003 2.31847148e-002 -3.93352807e-002
      2.18452443e-003 2.23366427e-003 1.73856150e-002 -2.18038056e-002
      9.38691723e-004 -1.25975348e-004 -4.06359206e-004 -4.06359206e-004
      -1.48067239e-003 4.93558298e-004 4.93558298e-004 4.93558298e-004
      1.07328240e-002 2.31058057e-003 3.69125861e-003 -1.67346671e-002
      5.99674881e-003 -1.95659394e-003 4.42547072e-003 -8.46562814e-003
      4.79756389e-003 -1.59918633e-003 -1.59918633e-003 -1.59918633e-003
      -9.46265925e-003 3.12636839e-003 7.29296776e-003 -9.56684933e-004
      6.98207086e-003 9.86713823e-003 2.40460690e-002 -4.08952758e-002
      3.81267304e-003 3.70868784e-003 2.26923116e-002 -3.02136708e-002
      8.01232271e-003 -3.23708332e-003 -2.55751424e-003 -2.21772981e-003
      1.01537649e-002 -3.90002574e-003 -3.48106027e-003 -2.77267885e-003
      5.69635490e-003 5.97913167e-004 1.11563746e-002 -1.74506456e-002
      -6.44241984e-004 -3.35344521e-004 1.03333732e-002 -9.35379136e-003
      1.90269062e-003 -5.27298311e-004 -5.27298311e-004 -8.48094816e-004
      -3.77943972e-004 -1.22061232e-002 1.17870644e-002 7.97004206e-004
      1.21783847e-002 1.86063722e-002 1.32379327e-002 -4.40226905e-002
      -6.83690887e-003 2.00501475e-002 6.06699847e-003 -1.92802381e-002
      2.44270768e-002 -5.18679561e-004 -1.16981110e-002 -1.22102881e-002
      1.76514499e-002 -6.49719825e-003 -4.28928807e-003 -6.86496124e-003
      5.49528096e-003 3.90380481e-003 2.80339620e-003 -1.22024827e-002
      -2.78114737e-003 7.71978078e-003 9.40524321e-003 -1.43438727e-002
      -8.15365091e-003 4.16911626e-003 2.20910273e-003 1.77543098e-003
      -9.97924525e-003 7.23914895e-003 2.45056232e-003 2.89530784e-004
      9.84307658e-003 3.61125804e-002 3.96234868e-003 -4.99180071e-002
      -9.94062051e-004 2.02621929e-002 -1.95316272e-003 -1.73149630e-002
      1.76278390e-002 -1.34833995e-002 4.77963360e-004 -4.62239468e-003
      4.03512735e-003 -1.47128140e-003 -1.28192233e-003 -1.28192233e-003
      -3.86012223e-004 2.17149407e-003 7.02175079e-004 -2.48765363e-003
      1.53413322e-002 1.00713428e-002 -4.80364077e-003 -2.06090342e-002
      2.02889205e-003 2.47253943e-003 -1.91718992e-003 -2.58424156e-003
      -1.91027299e-002 2.33848058e-002 -8.58251099e-003 4.30043600e-003
      7.37220282e-003 4.09521759e-002 2.12316960e-003 -5.04475497e-002
      1.97417177e-002 1.61581323e-003 -3.06098349e-003 -1.82965472e-002
      3.47994342e-002 -2.45133191e-002 -4.72674659e-003 -5.55937085e-003
      2.20159837e-003 2.05578958e-003 -1.98442140e-003 -2.27296841e-003
      3.45936674e-003 -1.02706603e-003 3.43289203e-003 -5.86519390e-003
      9.32692084e-003 5.53909736e-003 -4.30603791e-003 -1.05599826e-002
      7.90858734e-003 3.44426534e-003 -5.57434186e-003 -5.77851664e-003
      4.49994113e-003 -3.35763954e-003 -3.37182079e-003 2.22951965e-003
      2.85049621e-002 6.99400622e-003 -1.21372193e-003 -3.42852473e-002
      -1.21389574e-003 -1.18168180e-004 2.00301781e-002 -1.86981149e-002
      -1.15368271e-003 8.49316479e-004 1.52182387e-004 1.52182387e-004
      -2.86390714e-004 9.54639254e-005 9.54639254e-005 9.54639254e-005
      -5.22810966e-003 9.14007251e-005 1.77864339e-002 -1.26497252e-002
      -8.01404007e-004 4.28479072e-003 1.77191664e-002 -2.12025568e-002
      -6.84391125e-004 6.16486883e-004 3.39546204e-005 3.39546204e-005
      -3.81433289e-003 3.19856009e-003 5.69417840e-004 4.63524666e-005
      -9.24187060e-003 5.55748120e-003 1.54132200e-002 -1.17288306e-002
      -4.69994405e-003 2.62105663e-004 3.43117267e-002 -2.98738834e-002
      -8.35317594e-004 1.76926987e-004 4.37160110e-004 2.21231268e-004
      -6.30996423e-004 2.10332204e-004 2.10332204e-004 2.10332204e-004
      -7.79272756e-003 4.11204156e-003 2.75677945e-002 -2.38871109e-002
      -5.77997474e-004 -1.39586045e-004 3.29740047e-002 -3.22564170e-002
      -1.17633434e-003 5.76307357e-004 -2.91175587e-004 8.91198928e-004
      -1.14142494e-002 3.74755869e-003 3.49371089e-003 4.17298032e-003
      -6.44212309e-003 2.62689078e-003 2.61101350e-002 -2.22948994e-002
      -9.41840280e-003 7.78154191e-003 3.28272432e-002 -3.11903823e-002
      -1.95403211e-002 1.04877853e-003 3.80067271e-003 1.46908704e-002
      -6.43492956e-003 5.00725023e-003 8.76220409e-004 5.51461475e-004
      3.27396032e-004 9.50990338e-003 1.41432686e-002 -2.39805710e-002
      -5.63065894e-003 1.25253284e-002 2.26355419e-002 -2.95302086e-002
      -9.35975648e-003 1.74466788e-003 7.32762832e-003 2.87460483e-004
      -1.75411254e-002 9.67754796e-003 7.49793975e-003 3.65639629e-004
      -1.97769292e-002 1.18367244e-002 3.78284715e-002 -2.98882667e-002
      1.47569478e-002 8.44381563e-003 -4.04265709e-003 -1.91581063e-002
      -2.32701376e-003 9.62194230e-004 1.07357826e-003 2.91236822e-004
      7.03956420e-003 -3.04811890e-003 -1.11820246e-003 -2.87324213e-003
      2.90127308e-003 7.79605564e-003 8.47188930e-004 -1.15445172e-002
      9.43604577e-003 6.35593478e-003 8.70789052e-004 -1.66627709e-002
      -2.46094889e-003 9.53607168e-003 -6.08593738e-003 -9.89183318e-004
      -1.52908461e-002 1.20469024e-002 -1.16635987e-003 4.41029761e-003
      -7.14329444e-003 2.55341809e-002 2.67304643e-003 -2.10639331e-002
      -1.39507838e-002 -2.19107978e-003 2.74278577e-002 -1.12859979e-002
      -7.63784279e-004 2.54594983e-004 2.54594983e-004 2.54594983e-004
      -4.50098421e-004 1.50031672e-004 1.50031672e-004 1.50031672e-004
      -9.05307755e-003 1.18961716e-002 9.61667765e-003 -1.24597708e-002
      1.34070206e-003 9.79031669e-004 1.10628670e-002 -1.33825997e-002
      -1.48318652e-002 7.04029249e-003 7.68519519e-003 1.06376858e-004
      -1.15702003e-002 7.25664105e-003 3.76110617e-003 5.52453159e-004
      -1.65423693e-003 2.28514592e-003 2.28294656e-002 -2.34603751e-002
      -3.93788517e-003 -5.81719098e-004 3.27706486e-002 -2.82510407e-002
      6.75295247e-004 -9.52842965e-005 -2.90005410e-004 -2.90005410e-004
      2.57912034e-004 -8.59708307e-005 -8.59708307e-005 -8.59708307e-005
      -2.63893278e-003 1.66505680e-003 2.56394781e-002 -2.46656016e-002
      2.98097846e-003 -2.16044107e-004 2.53565069e-002 -2.81214379e-002
      -6.14591641e-003 2.63187941e-003 3.46069504e-003 5.33414386e-005
      -1.20043801e-002 3.56690865e-003 8.11047014e-003 3.26997921e-004
      -3.12705408e-004 4.81732516e-003 4.08856459e-002 -4.53902669e-002
      -9.37729888e-003 1.13509856e-002 2.59367917e-002 -2.79104784e-002
      1.77221932e-002 -1.17618858e-003 3.54000879e-003 -2.00860146e-002
      -2.70986697e-003 -1.83049403e-003 6.00228785e-003 -1.46192778e-003
      -1.37747277e-003 5.03339153e-003 2.56374832e-002 -2.92934030e-002
      -2.36747670e-003 5.70787024e-003 2.42203996e-002 -2.75607985e-002
      -1.35294301e-003 1.69866951e-003 4.46913618e-004 -7.92641542e-004
      -9.11255274e-003 -2.34610611e-003 7.18778977e-003 4.27087536e-003
      5.75647457e-004 1.90478265e-002 2.24795286e-002 -4.21030037e-002
      7.35363178e-003 1.00360541e-002 3.89008492e-005 -1.74285863e-002
      3.86378467e-002 -3.00642941e-002 -7.31120002e-004 -7.84243457e-003
      1.29805990e-002 -6.51922962e-003 5.61632623e-004 -7.02300062e-003
      6.46221638e-003 9.21548717e-003 1.79452356e-003 -1.74722243e-002
      6.94602728e-003 1.37014063e-002 -2.53364514e-003 -1.81137845e-002
      3.04888841e-003 5.55817853e-004 -2.43810448e-003 -1.16660027e-003
      1.71756446e-002 -1.63531695e-002 -4.49603610e-003 3.67356720e-003
      1.54198799e-002 1.50448000e-002 1.34767080e-003 -3.18123512e-002
      -5.63087221e-003 -7.82022194e-004 2.95127705e-002 -2.30998751e-002
      -4.22711630e-004 3.39242688e-004 7.38998933e-005 9.56985696e-006
      -8.32240767e-005 2.77410418e-005 2.77410418e-005 2.77410418e-005
      -5.86928893e-003 3.76344775e-003 2.08646711e-002 -1.87588315e-002
      8.59262480e-004 1.57673738e-003 2.26075910e-002 -2.50435937e-002
      -7.62302987e-003 3.64037277e-003 3.86829581e-003 1.14365284e-004
      -9.79194324e-003 4.47770907e-003 4.50260099e-003 8.11638252e-004
      -2.20955792e-003 3.94532550e-003 2.66748685e-002 -2.84106433e-002
      -3.32061347e-004 9.12967138e-003 1.41400620e-002 -2.29376685e-002
      7.64358463e-003 -7.88777974e-003 1.92462443e-003 -1.68042595e-003
      -6.19285158e-004 4.31298919e-004 2.74371495e-003 -2.55572796e-003
      3.36874812e-003 6.45219348e-003 9.75830480e-003 -1.95792504e-002
      1.52725016e-003 9.68099944e-003 1.25021543e-002 -2.37104036e-002
      -5.50644193e-003 6.12492301e-003 1.46637845e-004 -7.65121775e-004
      -1.30867604e-002 5.23672346e-003 3.37791606e-003 4.47212253e-003
      -4.29893844e-003 1.84891000e-002 1.70770772e-002 -3.12672444e-002</_>
    <_>
      1.62945397e-003 -1.51614181e-003 4.78911061e-005 -1.61201911e-004
      -4.25855222e-004 1.41951881e-004 1.41951881e-004 1.41951881e-004
      1.44034013e-004 -4.80105700e-005 -4.80105700e-005 -4.80105700e-005
      1.82969336e-004 -7.05313229e-004 4.87048528e-004 3.52940333e-005
      -1.73389027e-003 1.04077265e-003 7.06252467e-004 -1.31349980e-005
      1.51548549e-004 -1.53807559e-004 1.12907492e-006 1.12907492e-006
      -1.41347045e-004 9.59479876e-005 -1.04333676e-005 5.58317879e-005
      3.80781887e-004 5.71138749e-004 -3.63627536e-004 -5.88292314e-004
      1.01908511e-002 -1.13588008e-004 -4.82840929e-004 -9.59442183e-003
      1.57713157e-003 -1.07626233e-003 -3.37764213e-004 -1.63104880e-004
      8.82125169e-004 -3.61652201e-004 -3.61652201e-004 -1.58821436e-004
      -4.61544748e-003 -8.45449358e-006 4.02436033e-003 5.99543971e-004
      1.46736270e-002 -2.41803122e-003 -1.01114076e-003 -1.12444535e-002
      1.59286074e-002 -1.63056124e-002 3.16564037e-005 3.45349894e-004
      1.47671280e-002 -1.35260466e-002 -6.07290422e-004 -6.33792079e-004
      6.59673708e-003 1.53022236e-003 -8.20185698e-004 -7.30677368e-003
      1.06353257e-002 5.57694351e-004 -1.66879816e-003 -9.52422246e-003
      1.10112096e-003 -7.37885828e-004 -2.26965232e-004 -1.36269693e-004
      5.47784555e-004 -1.70074534e-004 -2.07634614e-004 -1.70074534e-004
      3.16772005e-003 -6.81077549e-003 2.21975776e-003 1.42329629e-003
      1.65972598e-002 -3.74003546e-003 -1.73019757e-003 -1.11270277e-002
      1.79758035e-002 -1.76418386e-002 -5.01763541e-004 1.67799953e-004
      1.81193836e-002 -1.40575841e-002 -2.07319669e-003 -1.98860210e-003
      1.01185180e-002 -6.03683409e-004 -2.51721125e-003 -6.99762208e-003
      -1.23006478e-003 8.93538818e-004 1.07910216e-003 -7.42576958e-004
      1.21449959e-003 -1.54139276e-003 1.52927954e-004 1.73965527e-004
      5.39971469e-003 -5.76910516e-003 1.70324696e-004 1.99066330e-004
      -2.42207490e-004 -7.01614516e-003 3.74000077e-003 3.51835205e-003
      1.25009948e-002 -4.93760780e-003 -1.53894478e-003 -6.02444354e-003
      1.64755117e-002 -1.58523563e-002 -8.97477556e-004 2.74323334e-004
      1.77595578e-002 -1.53522538e-002 -2.96038901e-003 5.53086458e-004
      5.34008909e-003 -2.21992913e-003 -1.86763017e-003 -1.25252909e-003
      -4.74302843e-003 -1.54012372e-003 3.94901540e-003 2.33413675e-003
      1.83148449e-003 -3.19287670e-003 4.42846766e-004 9.18546342e-004
      1.77522504e-003 -2.50250450e-003 3.63640720e-004 3.63640720e-004
      -4.90506506e-003 -4.24701069e-003 5.30821551e-003 3.84386000e-003
      -6.34024199e-003 -3.17826984e-003 4.67847846e-003 4.84003127e-003
      2.05627177e-003 -2.38829292e-003 1.62356140e-004 1.69665014e-004
      4.68661822e-003 -5.47571154e-003 4.14983428e-004 3.74111230e-004
      -4.71121399e-003 -1.26253511e-003 3.79208708e-003 2.18166062e-003
      -6.71322085e-003 -4.33257752e-004 2.95173214e-003 4.19474533e-003
      -2.00182665e-003 -2.14392552e-003 1.12245488e-003 3.02329706e-003
      -3.49426933e-004 -4.93507032e-005 1.99388291e-004 1.99388291e-004
      -7.22082844e-003 -4.84045502e-003 2.92320084e-003 9.13808309e-003
      -8.71348567e-003 1.51512155e-003 2.52659176e-003 4.67177201e-003
      -4.51287581e-003 3.93423717e-003 2.89319665e-004 2.89319665e-004
      1.64012262e-003 -2.16308516e-003 2.61481822e-004 2.61481822e-004
      -7.85726216e-003 9.62938066e-004 4.28237673e-003 2.61194725e-003
      -1.10272896e-002 3.79810133e-003 4.23420483e-004 6.80576870e-003
      -2.38055992e-003 7.93520187e-004 7.93520187e-004 7.93520187e-004
      -1.47926738e-003 5.94040321e-004 4.42613935e-004 4.42613935e-004
      -1.48098590e-002 1.41577073e-003 4.30379296e-003 9.09029692e-003
      -8.46949685e-003 1.36654940e-003 6.70301670e-004 6.43264456e-003
      -2.31886841e-003 1.47004647e-003 4.24411206e-004 4.24411206e-004
      -2.99568265e-003 2.48697377e-003 2.59416731e-004 2.49291159e-004
      -1.04932804e-002 6.43874286e-003 1.34021940e-003 2.71431729e-003
      -7.15635484e-003 1.98918162e-003 1.09601207e-003 4.07116069e-003
      -9.47975786e-004 3.15992336e-004 3.15992336e-004 3.15992336e-004
      -2.76805833e-003 2.34360085e-003 2.12228217e-004 2.12228217e-004
      -1.32214362e-002 5.57380496e-003 3.12276301e-003 4.52486845e-003
      -8.51039402e-003 2.41613109e-003 1.28621992e-003 4.80804406e-003
      -9.02377360e-004 6.19994767e-004 1.41191005e-004 1.41191005e-004
      -3.38914944e-003 3.22389742e-003 8.26267787e-005 8.26267787e-005
      -8.50121025e-003 5.24436077e-003 7.43860612e-004 2.51298817e-003
      -6.56922814e-003 9.53132752e-004 3.84252379e-003 1.77357171e-003
      -2.34695012e-003 1.04004308e-003 6.53453055e-004 6.53453055e-004
      -1.40653609e-003 4.68845392e-004 4.68845392e-004 4.68845392e-004
      -8.92220810e-003 2.56981305e-003 5.75399632e-003 5.98397979e-004
      -1.17888059e-002 5.88205922e-003 5.60541265e-003 3.01334338e-004
      -1.38214114e-003 3.72953102e-004 5.04594238e-004 5.04594238e-004
      -4.10189357e-004 -3.27334965e-005 2.21462571e-004 2.21462571e-004
      -5.99659327e-003 1.15542975e-003 3.33836838e-003 1.50279526e-003
      -4.34862077e-003 1.76392647e-003 7.34505663e-003 -4.76036221e-003
      -1.21874670e-002 3.69059108e-003 4.10448108e-003 4.39239386e-003
      -1.30768241e-002 3.59959831e-003 4.72850585e-003 4.74872021e-003
      -1.04702469e-002 -4.40459000e-003 1.26756392e-002 2.19919765e-003
      -1.17428284e-002 -3.00922478e-003 1.30053284e-002 1.74672529e-003
      -1.25931585e-002 -5.44882787e-004 6.55718613e-003 6.58085616e-003
      -9.86007880e-003 5.25046547e-004 4.35314979e-003 4.98188240e-003
      -1.92410443e-002 1.54853406e-004 9.06543899e-003 1.00207515e-002
      -1.57645193e-003 -6.27807865e-004 5.36940852e-003 -3.16514913e-003
      -3.45712621e-003 -6.58464967e-004 2.01696809e-003 2.09862343e-003
      -7.28147430e-003 1.38116709e-003 2.94336188e-003 2.95694522e-003
      -5.24610979e-003 -9.02386196e-003 1.11341970e-002 3.13577382e-003
      -6.78976951e-003 -1.14852088e-002 1.65225808e-002 1.75239728e-003
      -8.60571396e-003 -4.63502761e-003 6.62037125e-003 6.62037125e-003
      -2.29270360e-003 -8.06783047e-003 4.58625751e-003 5.77427680e-003
      -7.59503804e-003 -1.13151604e-002 8.92332941e-003 9.98686906e-003
      -1.49494391e-002 -6.22856198e-003 1.26184365e-002 8.55956320e-003
      -1.16788754e-002 1.92351942e-003 4.99549229e-003 4.75986581e-003
      -1.23492843e-002 5.50848723e-004 5.89240203e-003 5.90603193e-003
      -1.79150663e-002 -2.70032394e-003 1.32341729e-002 7.38121802e-003
      -1.48034655e-002 -7.63617968e-003 1.71441808e-002 5.29546430e-003
      -1.09233614e-002 -3.61684989e-003 7.27010518e-003 7.27010518e-003
      9.51302121e-004 -1.58960558e-002 5.00639062e-003 9.93836299e-003
      -1.02813607e-002 -1.36375632e-002 1.17862644e-002 1.21326596e-002
      -1.06990989e-002 -1.34488652e-002 1.22325514e-002 1.19154127e-002
      -1.26856361e-002 -1.92812062e-003 6.99601136e-003 7.61774555e-003
      -7.45177502e-003 -8.33361223e-003 7.80521566e-003 7.98016973e-003
      -8.53201281e-003 -1.02042379e-002 1.01938145e-002 8.54243618e-003
      -1.77741181e-002 -6.30527781e-003 1.55990086e-002 8.48038588e-003
      -1.53419590e-002 -1.46092242e-003 8.40144139e-003 8.40144139e-003
      -1.21780038e-002 -4.61939536e-003 8.63464363e-003 8.16275552e-003
      -1.95479393e-002 -5.17588435e-003 1.21303992e-002 1.25934239e-002
      -1.44766960e-002 -7.96553493e-003 1.00199617e-002 1.24222701e-002
      -1.45843346e-002 -2.82194559e-003 1.08086262e-002 6.59765350e-003
      -6.02782425e-003 -3.52456002e-003 4.73372405e-003 4.81866067e-003
      -1.58437286e-002 -3.33071011e-003 1.01443371e-002 9.03010182e-003
      -1.99071690e-002 -1.27143005e-003 1.33230099e-002 7.85559043e-003
      -2.34701168e-002 5.08964644e-004 1.83908846e-002 4.57026623e-003
      -2.47786548e-002 9.59445629e-003 8.82015564e-003 6.36404334e-003
      -2.78700348e-002 4.78987535e-003 1.06433704e-002 1.24367904e-002
      -2.70226467e-002 9.04260948e-003 6.42715860e-003 1.15528768e-002
      -1.38934897e-002 3.53323389e-003 4.39718179e-003 5.96307358e-003
      -5.51237911e-003 -3.30677663e-004 2.92152865e-003 2.92152865e-003
      -1.61335487e-002 2.01726053e-003 7.32643437e-003 6.78985333e-003
      -2.09104251e-002 5.79155050e-003 8.68598279e-003 6.43289229e-003
      -2.20686384e-002 1.28121581e-002 7.31538935e-003 1.94109255e-003
      -2.42513418e-002 1.19168293e-002 5.51330810e-003 6.82120351e-003
      -2.76434626e-002 9.73374955e-003 7.72102550e-003 1.01886867e-002
      -9.36631486e-003 3.70465172e-003 9.75921110e-004 4.68574045e-003
      -3.32878879e-003 2.11766083e-003 1.01580261e-003 1.95325687e-004
      -2.96339113e-003 2.42634094e-003 3.93104390e-004 1.43943922e-004
      -1.13161933e-002 5.71038201e-003 2.49477359e-003 3.11103719e-003
      -8.86937231e-003 3.82692879e-003 1.68718304e-003 3.35525977e-003
      -7.39493314e-003 2.82368553e-003 3.73301911e-003 8.38227803e-004
      -5.74104860e-003 4.09874972e-003 6.83113525e-004 9.59185883e-004
      -1.02677504e-002 4.57968609e-003 8.04444833e-004 4.88361996e-003
      -9.57944244e-003 3.44181480e-003 3.86041566e-003 2.27721152e-003
      -3.12635396e-003 1.04211760e-003 1.04211760e-003 1.04211760e-003
      -1.38707808e-003 4.62359254e-004 4.62359254e-004 4.62359254e-004
      -8.78287945e-003 5.74155059e-003 2.85784411e-003 1.83484430e-004
      -4.48595919e-003 1.69213477e-003 2.66479049e-003 1.29034408e-004
      -1.57698093e-003 2.81691668e-004 7.68360973e-004 5.26929740e-004
      -3.53693007e-003 2.92649772e-003 4.51023487e-004 1.59407151e-004
      -1.04633998e-002 3.45491827e-003 5.91398962e-003 1.09449227e-003
      -1.53466305e-002 -9.69269429e-004 9.39677842e-003 6.91912323e-003
      -7.14907981e-003 2.68523209e-003 1.95456180e-003 2.50928663e-003
      -7.04944693e-003 2.34198733e-003 2.35372921e-003 2.35372921e-003
      -2.14450750e-002 4.00139205e-003 1.35040302e-002 3.93965188e-003
      -2.14213450e-002 2.28741812e-003 1.56952739e-002 3.43865203e-003
      -1.41184023e-002 3.12845944e-003 7.83714838e-003 3.15279444e-003
      -1.41776148e-002 3.17217223e-003 7.09173363e-003 3.91371083e-003
      -1.65126696e-002 2.34992040e-004 9.72822774e-003 6.54944871e-003
      -1.10951886e-002 -4.45255404e-003 7.80314999e-003 7.74459122e-003
      -1.53102900e-003 -3.83938896e-003 1.79246312e-003 3.57795507e-003
      -1.16711706e-002 3.53189092e-003 4.06963937e-003 4.06963937e-003
      -2.46209558e-002 3.56412516e-003 1.51591729e-002 5.89765701e-003
      -2.59991437e-002 1.65491749e-003 1.80434920e-002 6.30073203e-003
      -2.05445420e-002 4.82273474e-003 9.83833987e-003 5.88346738e-003
      -1.62443947e-002 3.88993416e-003 8.15466698e-003 4.19979403e-003
      -1.84174161e-002 1.75972338e-004 1.09349815e-002 7.30646076e-003
      -1.07091619e-002 -5.34492638e-003 7.77978869e-003 8.27429909e-003
      6.26870990e-003 -1.23228915e-002 3.04127368e-003 3.01290886e-003
      -7.01803714e-003 -4.56320401e-003 5.00408933e-003 6.57715183e-003
      -2.32070927e-002 -1.83512777e-004 1.68294236e-002 6.56118290e-003
      -2.78852154e-002 2.78135203e-003 1.81871150e-002 6.91674883e-003
      -1.27245961e-002 5.87713614e-004 5.87445591e-003 6.26242580e-003
      -1.56901423e-002 -6.17946149e-004 9.25602112e-003 7.05206953e-003
      -1.46995820e-002 -3.44342645e-003 1.14524718e-002 6.69053709e-003
      -1.57075971e-002 -4.55649989e-003 9.79666971e-003 1.04674269e-002
      -7.57066347e-003 -8.96932092e-003 1.08652869e-002 5.67469792e-003
      -1.46022812e-002 -8.62079766e-003 1.79099515e-002 5.31312730e-003
      -2.68796552e-002 2.05567852e-003 1.86043531e-002 6.21962361e-003
      -2.79272981e-002 2.94427853e-003 1.84086412e-002 6.57437835e-003
      -1.94847677e-002 2.84102489e-003 8.16657953e-003 8.47716350e-003
      -1.18920719e-002 -1.07678771e-002 8.72952770e-003 1.39304204e-002
      -1.47394883e-002 -9.00110975e-003 1.22393174e-002 1.15012815e-002
      -2.12646239e-002 7.15990842e-004 9.95902251e-003 1.05896099e-002
      -1.15443929e-003 -1.25305206e-002 6.16024947e-003 7.52471155e-003
      -1.89308785e-002 3.22328554e-003 1.01413103e-002 5.56628220e-003
      -2.93176007e-002 7.99299031e-003 1.51089141e-002 6.21569762e-003
      -2.74615400e-002 5.39867114e-003 1.30387712e-002 9.02409665e-003
      -2.48961058e-002 1.31202694e-002 5.88791864e-003 5.88791864e-003
      -1.66504029e-002 9.54821531e-004 7.50158122e-003 8.19400046e-003
      -2.52023377e-002 3.89855960e-003 1.05325393e-002 1.07712392e-002
      -2.87134908e-002 9.53956880e-003 9.21360496e-003 9.96031612e-003
      -2.24288926e-002 6.89086039e-003 7.09425565e-003 8.44377838e-003
      -1.09855281e-002 7.78910064e-004 5.10330964e-003 5.10330964e-003
      -2.17950363e-002 8.82437639e-003 6.11647870e-003 6.85418118e-003
      -2.20951345e-002 8.99022445e-003 5.24887536e-003 7.85603561e-003
      -9.48217232e-003 6.04945887e-003 2.51138024e-003 9.21333092e-004
      -2.04848833e-002 1.03078317e-002 5.99138439e-003 4.18566819e-003
      -2.73436550e-002 9.80634056e-003 9.01374035e-003 8.52357317e-003
      -1.06698321e-002 4.51568980e-003 2.36454140e-003 3.78960115e-003
      -3.80406715e-003 1.07621681e-003 2.28079618e-003 4.47054714e-004
      -2.32063280e-003 7.57190108e-004 1.06705073e-003 4.96392895e-004
      -1.04992371e-002 4.01162403e-003 1.80180545e-003 4.68580844e-003
      -1.00212237e-002 4.64709010e-003 9.08075715e-004 4.46605869e-003
      3.73672752e-004 1.50478845e-005 -1.94360720e-004 -1.94360720e-004
      -4.47405269e-003 2.56489380e-003 5.67628827e-004 1.34152954e-003
      -1.01735089e-002 5.75828180e-003 1.65270700e-003 2.76252045e-003
      -1.95745146e-003 1.84238493e-003 3.81551145e-005 7.69111430e-005
      -7.18424330e-004 2.39474146e-004 2.39474146e-004 2.39474146e-004
      -7.45360041e-004 2.48453551e-004 2.48453551e-004 2.48453551e-004
      -1.51243701e-003 1.48901239e-003 1.17117952e-005 1.17117952e-005
      2.61577748e-004 -2.98330939e-004 1.83769607e-005 1.83769607e-005
      -2.41844705e-003 1.84430322e-003 4.78310947e-004 9.58330857e-005
      -2.81048153e-004 1.09271670e-004 8.58882195e-005 8.58882195e-005
      -1.29383337e-003 1.04126253e-003 2.60219676e-004 -7.64784818e-006
      -7.36625912e-003 3.40031669e-003 3.11944704e-003 8.46494222e-004
      -2.78314052e-004 9.27710935e-005 9.27710935e-005 9.27710935e-005
      -3.18298960e-004 1.06099396e-004 1.06099396e-004 1.06099396e-004
      -2.39099795e-003 2.35661725e-003 1.71899283e-005 1.71899283e-005
      6.22668827e-004 -7.29909167e-004 5.36203333e-005 5.36203333e-005
      -3.15680262e-003 1.30895409e-003 1.87936844e-003 -3.15197067e-005
      3.48082802e-004 -1.31898007e-004 -1.08092630e-004 -1.08092630e-004
      -7.98302889e-003 2.97743408e-003 4.26050648e-003 7.45089084e-004
      -6.17311709e-003 1.71629712e-003 2.93769571e-003 1.51912402e-003
      4.05206950e-003 -3.81543161e-003 8.71301963e-005 -3.23768851e-004
      -2.80041917e-004 9.33468764e-005 9.33468764e-005 9.33468764e-005
      -5.32529433e-004 1.34593312e-004 3.86897300e-004 1.10391047e-005
      1.42266427e-003 -2.29653367e-003 8.11428588e-004 6.24402237e-005
      -2.14451551e-003 9.62968508e-004 1.07310165e-003 1.08445180e-004
      -2.24719848e-003 1.32138166e-003 1.00194954e-003 -7.61336050e-005
      -1.00169014e-002 2.86189304e-003 5.86059829e-003 1.29441137e-003
      -9.73980501e-003 4.18817671e-003 2.62685586e-003 2.92477314e-003
      8.38358596e-004 -1.30955270e-003 1.58933472e-004 3.12262302e-004
      -3.86038912e-004 -3.60128848e-004 3.73083691e-004 3.73083691e-004
      -3.39811272e-003 1.62235030e-003 1.63661328e-003 1.39148236e-004
      -2.75956863e-003 -6.24223729e-004 2.94824410e-003 4.35548369e-004
      -8.78327468e-004 2.92776036e-004 2.92776036e-004 2.92776036e-004
      -2.92176264e-003 6.85485196e-004 2.11820845e-003 1.18067888e-004
      -1.01662939e-002 3.02486261e-003 5.83956670e-003 1.30186591e-003
      -1.15699759e-002 3.13821156e-003 4.32911981e-003 4.10264498e-003
      5.27681143e-004 -1.16482424e-003 3.18571925e-004 3.18571925e-004
      1.88256672e-004 -3.43866966e-004 7.78047397e-005 7.78047397e-005
      -8.47851858e-003 1.81235571e-003 5.64815942e-003 1.01800251e-003
      -6.86633959e-003 1.45327521e-003 4.45177266e-003 9.61291720e-004
      -1.93306268e-003 6.44354324e-004 6.44354324e-004 6.44354324e-004
      -3.53049906e-003 4.42025572e-004 2.34676176e-003 7.41712109e-004
      -1.12242848e-002 5.35303308e-003 3.93028744e-003 1.94096367e-003
      -1.23547493e-002 1.86427671e-003 2.92757759e-003 7.56289531e-003
      -4.15199250e-003 2.57186266e-003 1.11174630e-003 4.68384387e-004
      -2.33167969e-003 1.34797278e-003 4.91853862e-004 4.91853862e-004
      -1.06867030e-002 3.27045773e-003 4.04963596e-003 3.36660934e-003
      -9.89659596e-003 3.69279273e-003 4.21217689e-003 1.99162564e-003
      -2.58472934e-003 1.27401459e-003 6.55357493e-004 6.55357493e-004
      -5.10903727e-003 2.99762841e-003 1.39810331e-003 7.13306770e-004
      -1.16918962e-002 6.01258315e-003 1.25607487e-003 4.42323694e-003
      -1.43028758e-002 3.05981562e-003 2.36165058e-003 8.88141058e-003
      -7.81856850e-003 2.43989914e-003 2.68933550e-003 2.68933550e-003
      -6.99816830e-003 2.27077375e-003 2.36369716e-003 2.36369716e-003
      -9.57464520e-003 3.41577630e-004 3.47237871e-003 5.76068833e-003
      -8.62371363e-003 7.06942379e-003 8.11651349e-004 7.42638076e-004
      -2.42618378e-003 2.12459965e-003 1.50792781e-004 1.50792781e-004
      -7.40388874e-003 5.41640166e-003 4.57915041e-004 1.52957102e-003
      -1.14284661e-002 6.83928188e-003 4.18743613e-004 4.17044060e-003
      -1.14547284e-002 2.81273201e-003 2.06518825e-003 6.57680864e-003
      -1.98824680e-003 1.23053568e-003 3.78855621e-004 3.78855621e-004
      -1.51567569e-003 3.16555117e-004 5.99560677e-004 5.99560677e-004
      -6.18070271e-003 2.17408975e-004 2.71666981e-003 3.24662449e-003
      -7.54001876e-003 5.99362655e-003 7.31940207e-004 8.14452360e-004
      -3.04378616e-003 2.67613074e-003 2.78873456e-004 8.87825809e-005
      -3.27598001e-003 9.64348845e-004 9.13979951e-004 1.39765162e-003
      -8.16597976e-003 4.53642337e-003 1.19248149e-003 2.43707583e-003
      1.54170010e-003 -8.63174617e-004 2.70097214e-003 -3.37949768e-003
      5.36856591e-004 -5.32467791e-004 -7.91068378e-005 7.47171143e-005
      6.09547249e-004 -7.03825848e-004 3.61634156e-005 5.81157037e-005
      -9.04298667e-003 2.16234126e-004 7.63356593e-003 1.19318708e-003
      -3.78398399e-004 -1.24869717e-003 5.12883067e-003 -3.50173493e-003
      7.19788345e-003 -7.33378995e-003 3.08174931e-005 1.05089537e-004
      6.03973866e-003 -5.51321357e-003 -4.36973409e-004 -8.95516205e-005
      -2.15612422e-003 -2.89994263e-004 2.12626019e-003 3.19858984e-004
      -1.29112974e-003 -1.47942523e-003 4.43329522e-003 -1.66274165e-003
      2.54953536e-003 -2.70206644e-003 6.59525977e-005 8.65784532e-005
      4.52752924e-003 -4.74175671e-003 9.81963458e-005 1.16030627e-004
      -4.12230566e-003 -7.07841478e-003 7.75857549e-003 3.44214612e-003
      5.18418197e-003 -7.91152660e-003 6.81575201e-003 -4.08840831e-003
      1.22586405e-002 -1.23285074e-002 -1.05943043e-004 1.75810637e-004
      1.82418339e-002 -1.71466134e-002 -1.20398030e-003 1.08760039e-004
      4.36392240e-003 -7.39309099e-003 2.24148668e-003 7.87681551e-004
      -3.42849223e-003 -7.71437073e-003 5.51252905e-003 5.63033344e-003
      3.14905168e-003 -5.93347335e-003 1.10141526e-003 1.68300595e-003
      9.04677622e-003 -9.38913878e-003 1.30918706e-004 2.11442501e-004
      -5.54647110e-003 -6.00869255e-003 5.14275907e-003 6.41240459e-003
      -8.03036336e-003 -4.55309497e-003 8.14137701e-003 4.44207992e-003
      5.01443632e-004 -4.07669600e-003 3.35509423e-003 2.20156580e-004
      3.82679165e-003 -4.63707931e-003 5.03953255e-004 3.06334434e-004
      -9.13278852e-003 -2.61357240e-003 5.78680541e-003 5.95955784e-003
      -1.03808464e-002 3.63129354e-003 1.14238099e-003 5.60717192e-003
      -1.64926751e-003 8.98401660e-004 4.60561510e-004 2.90304364e-004
      -1.62513030e-003 1.32581545e-003 2.14221058e-004 8.50941142e-005
      -1.26009155e-002 2.95416079e-003 3.92798102e-003 5.71877416e-003
      -1.02848709e-002 3.16916453e-003 2.88056722e-003 4.23513958e-003
      -1.01474179e-002 6.70419121e-003 3.30707268e-003 1.36153511e-004
      -4.52663610e-003 3.66989197e-003 2.99829728e-004 5.56915533e-004
      -1.14231920e-002 5.43604698e-003 1.78840279e-003 4.19874350e-003
      -1.01085119e-002 1.36341096e-003 5.33693656e-003 3.40816355e-003
      -2.89394279e-007 7.24968850e-005 -1.03676604e-004 3.14708559e-005
      -2.43664224e-004 7.92832579e-005 8.21905633e-005 8.21905633e-005
      -1.03130955e-002 4.19208221e-003 5.43464767e-003 6.86365936e-004
      -5.45920152e-003 2.75831640e-004 5.02377981e-003 1.59590985e-004
      -2.85281823e-003 1.30296848e-003 1.47638051e-003 7.34694186e-005
      -1.98742514e-003 1.17432186e-003 6.65443251e-004 1.47660641e-004
      -9.72317345e-003 2.02503940e-003 5.40291099e-003 2.29522213e-003
      -1.16532436e-002 1.24512298e-004 5.66102425e-003 5.86770615e-003
      1.29439216e-002 -9.45231784e-003 -2.00743275e-003 -1.48417091e-003
      3.91209498e-003 -3.69224558e-003 -3.61073151e-004 1.41224082e-004
      -1.11596975e-002 1.35666574e-004 8.86837393e-003 2.15565786e-003
      -9.91979521e-003 -1.58593862e-003 9.72719211e-003 1.77854241e-003
      8.97496298e-004 -2.13294383e-003 1.02933194e-003 2.06115277e-004
      -8.40625609e-004 -1.68021640e-003 2.30510160e-003 2.15740016e-004
      -1.25928726e-002 6.48190442e-004 8.19424726e-003 3.75043554e-003
      -1.19581893e-002 -2.63341044e-005 5.16711455e-003 6.81740930e-003
      9.74352099e-003 -9.03383642e-003 -9.92031302e-004 2.82346999e-004
      2.24024802e-003 -5.99944871e-003 3.35988915e-003 3.99309618e-004
      -1.35427797e-002 1.39163341e-003 9.88793746e-003 2.26320908e-003
      -1.34316804e-002 1.31076912e-003 8.99353251e-003 3.12737888e-003
      1.47586141e-003 -2.19980767e-003 2.79211701e-004 4.44733276e-004
      2.37851124e-003 -6.83989841e-003 2.61094142e-003 1.85044436e-003
      -1.14923771e-002 1.18366489e-003 5.13744727e-003 5.17126452e-003
      -1.30300755e-002 3.77634214e-003 2.89484579e-003 6.35888707e-003
      -2.43497873e-003 8.36089544e-004 1.27305463e-003 3.25834757e-004
      -3.40677565e-004 -5.71114884e-004 6.00111205e-004 3.11680895e-004
      -1.04993060e-002 3.40697891e-003 2.69438792e-003 4.39794036e-003
      -1.08222803e-002 6.15105359e-003 1.50793884e-003 3.16328811e-003
      -2.15254724e-003 1.93313742e-003 1.51854736e-004 6.75549527e-005
      -7.10211182e-003 4.32939036e-003 1.36537617e-003 1.40734471e-003
      -1.16161434e-002 5.90775395e-003 2.27170042e-003 3.43668857e-003
      -5.91357984e-003 -2.35945801e-004 4.70845075e-003 1.44107570e-003
      8.23776331e-003 -5.97639754e-003 -1.30414462e-003 -9.57221782e-004
      2.75366404e-003 -2.60640401e-003 -1.67729348e-004 2.04699099e-005
      -1.00067342e-002 9.13717449e-005 7.85367656e-003 2.06168508e-003
      -1.36148452e-003 -3.19470325e-003 6.43954286e-003 -1.88335625e-003
      5.72451623e-003 -6.53810659e-003 7.81880168e-004 3.17099220e-005
      8.67740810e-003 -8.49818811e-003 -7.06520150e-005 -1.08567459e-004
      -6.43833540e-003 -4.68499755e-004 4.86931158e-003 2.03752425e-003
      -9.80695710e-003 -1.72228582e-004 3.78390425e-003 6.19528070e-003
      3.85109684e-003 -4.31851717e-003 -3.15541780e-004 7.82963529e-004
      2.58155214e-003 -3.81827285e-003 1.12131482e-003 1.15404655e-004
      -1.05463685e-002 5.78973617e-004 5.17294742e-003 4.79444815e-003
      -1.02901114e-002 8.38173844e-004 5.72089339e-003 3.73104564e-003
      -1.08532852e-003 -1.06932690e-004 1.14159880e-003 5.06617944e-005
      1.93803920e-004 -2.07556016e-003 1.04664941e-003 8.35107465e-004
      -1.14517855e-002 2.78441887e-003 3.86112882e-003 4.80623730e-003</_>
    <_>
      1.06264814e-003 -8.60756787e-004 -2.26072312e-004 2.41806301e-005
      1.42898105e-004 -4.76327659e-005 -4.76327659e-005 -4.76327659e-005
      1.14872830e-003 -3.82909027e-004 -3.82909027e-004 -3.82909027e-004
      4.31225344e-004 -9.16899240e-004 4.49732324e-004 3.59417281e-005
      -5.41261805e-004 3.00648790e-005 5.32191771e-004 -2.09950194e-005
      2.56080850e-004 -8.53605452e-005 -8.53605452e-005 -8.53605452e-005
      5.58674044e-004 -1.74690518e-004 -1.93781671e-004 -1.90202074e-004
      -1.14437680e-004 2.68142991e-004 -1.53547197e-004 -1.57338505e-007
      1.26599346e-003 -1.21709064e-003 -3.02639237e-004 2.53735721e-004
      1.43611163e-004 -4.78702023e-005 -4.78702023e-005 -4.78702023e-005
      4.23706428e-004 -2.91387609e-004 -6.61594677e-005 -6.61594677e-005
      -3.25178355e-003 -1.41723140e-003 3.80455959e-003 8.64456466e-004
      -1.42812496e-003 -2.71663582e-003 3.56639782e-003 5.78363368e-004
      -6.09793176e-004 3.08233226e-004 1.50780557e-004 1.50780557e-004
      -2.41428905e-004 3.70117516e-004 -4.76871392e-005 -8.10021447e-005
      8.37289321e-004 -5.29608049e-004 -2.84402544e-004 -2.32782058e-005
      7.67735299e-003 -3.39931692e-003 -2.73019797e-003 -1.54783903e-003
      4.05806070e-003 -3.20511730e-003 -4.26471874e-004 -4.26471874e-004
      5.97387180e-003 -4.16912744e-003 -9.02372238e-004 -9.02372238e-004
      1.13583952e-002 -6.58609020e-003 -1.35277689e-003 -3.41952941e-003
      6.53511798e-003 -8.52665491e-003 2.79919966e-003 -8.07663542e-004
      2.54132971e-003 -2.30919733e-003 -1.16066054e-004 -1.16066054e-004
      1.23325828e-003 -1.13083993e-003 -4.04243947e-005 -6.19937273e-005
      1.53491423e-002 -6.74739201e-003 -6.43894356e-003 -2.16280646e-003
      7.77920615e-003 -3.08058946e-003 -2.81874952e-003 -1.87986693e-003
      2.22368655e-003 -1.17846031e-003 -5.22613467e-004 -5.22613467e-004
      4.04789392e-003 -2.28683394e-003 -8.80530220e-004 -8.80530220e-004
      1.31419832e-002 -6.52295304e-003 -3.26169305e-003 -3.35733662e-003
      4.26847767e-003 -6.37290720e-003 2.36249273e-003 -2.58063432e-004
      5.46848052e-004 -5.21363690e-004 -1.27423209e-005 -1.27423209e-005
      3.95078678e-003 -4.32986999e-003 1.85536512e-004 1.93547981e-004
      1.37944920e-002 -7.73596670e-003 -4.89249127e-003 -1.16603321e-003
      -3.62958247e-003 4.33197129e-004 2.36686831e-003 8.29517143e-004
      -9.08489223e-004 6.94587885e-004 1.20863660e-004 9.30373062e-005
      2.49579502e-003 -3.01175890e-003 2.57982261e-004 2.57982261e-004
      1.61938102e-003 -3.10001615e-003 9.19303566e-004 5.61331748e-004
      -4.55481559e-003 -6.33722171e-004 2.25856807e-003 2.92996899e-003
      -6.42996631e-004 -5.93955992e-005 3.51196533e-004 3.51196533e-004
      2.73964298e-003 -3.50203458e-003 3.95301846e-004 3.67088971e-004
      -2.26818165e-003 -9.42205603e-004 1.66064501e-003 1.54974218e-003
      -9.61505901e-003 3.72970966e-003 2.04389123e-003 3.84145789e-003
      -2.01932946e-003 5.01854927e-004 8.42062698e-004 6.75411429e-004
      -1.35808776e-003 6.88251865e-004 3.34917684e-004 3.34917684e-004
      -1.18717011e-002 2.45301449e-003 2.31981697e-003 7.09886942e-003
      -9.30463336e-003 3.60275852e-003 2.02614837e-003 3.67572601e-003
      -3.87094216e-003 3.17919161e-003 3.45875247e-004 3.45875247e-004
      -2.89479177e-003 2.32677092e-003 2.97167833e-004 2.70853256e-004
      -1.07527710e-002 4.96411556e-003 3.25969071e-003 2.52896477e-003
      -9.56164580e-003 3.03272507e-003 3.51223978e-004 6.17769687e-003
      -1.17148890e-003 3.90496309e-004 3.90496309e-004 3.90496309e-004
      -1.05719373e-003 5.58509317e-004 2.49341858e-004 2.49341858e-004
      -1.13108624e-002 9.63752798e-004 3.33321793e-003 7.01389182e-003
      -6.71846652e-003 1.05001742e-003 6.18692196e-004 5.04975626e-003
      -2.07178202e-003 1.01426267e-003 5.28759905e-004 5.28759905e-004
      -3.54668242e-003 3.04025249e-003 2.60843488e-004 2.45586067e-004
      -1.02123879e-002 6.57363376e-003 1.43598591e-003 2.20276765e-003
      -6.51641656e-003 1.95189798e-003 8.93144927e-004 3.67137254e-003
      -3.73536081e-004 1.24512386e-004 1.24512386e-004 1.24512386e-004
      -1.82603218e-003 1.70131726e-003 6.23574233e-005 6.23574233e-005
      -1.04718609e-002 4.57237894e-003 2.41065328e-003 3.48882913e-003
      -7.10698729e-003 2.32117996e-003 1.03881687e-003 3.74699105e-003
      -8.65961891e-004 4.54860099e-004 2.05550896e-004 2.05550896e-004
      -4.18418553e-003 3.76154622e-003 2.11320337e-004 2.11320337e-004
      -8.23353790e-003 5.42832911e-003 8.63243360e-004 1.94196473e-003
      -6.48340117e-003 1.40115758e-003 3.78159573e-003 1.30064785e-003
      3.81047750e-004 6.03185890e-006 -1.93540167e-004 -1.93540167e-004
      2.17240704e-005 -7.24139863e-006 -7.24139863e-006 -7.24139863e-006
      -5.22722304e-003 3.04144603e-004 4.44378704e-003 4.79290728e-004
      -9.36537422e-003 4.82840464e-003 4.30782093e-003 2.29147961e-004
      -1.02075818e-003 3.40252533e-004 3.40252533e-004 3.40252533e-004
      -5.48013835e-004 2.44272960e-004 1.51870685e-004 1.51870685e-004
      -2.66234670e-003 -1.52234873e-003 3.22525762e-003 9.59437166e-004
      -2.33449955e-002 4.82311146e-003 1.04841581e-002 8.03772546e-003
      -1.30454721e-002 4.65698726e-003 4.19424241e-003 4.19424241e-003
      -1.21587915e-002 4.05293051e-003 4.05293051e-003 4.05293051e-003
      -1.33626796e-002 3.44127358e-004 1.09719150e-002 2.04663747e-003
      -1.91528667e-002 5.27359778e-003 1.18809268e-002 1.99834141e-003
      -1.41064376e-002 4.70214570e-003 4.70214570e-003 4.70214570e-003
      -1.24204783e-002 4.84706322e-003 3.78670800e-003 3.78670800e-003
      -2.00083610e-002 1.79123529e-003 9.78209451e-003 8.43503233e-003
      -1.64787844e-002 -3.68345692e-003 1.07547864e-002 9.40745603e-003
      -1.10094734e-002 3.51415924e-003 3.74765694e-003 3.74765694e-003
      -7.99203757e-003 1.63369149e-003 3.17917322e-003 3.17917322e-003
      -3.60119459e-003 -8.96350946e-003 9.31798574e-003 3.24671809e-003
      -7.83735793e-003 -6.54116506e-003 1.30467936e-002 1.33172923e-003
      -1.31606748e-002 3.85177275e-003 4.65445127e-003 4.65445127e-003
      -1.24572879e-002 3.60323628e-003 4.42702603e-003 4.42702603e-003
      -1.20641412e-002 -4.24735621e-003 7.63707096e-003 8.67442694e-003
      -1.59810539e-002 -5.43091446e-003 1.31035736e-002 8.30839481e-003
      -1.27471900e-002 3.14428518e-003 4.93992260e-003 4.66298219e-003
      -9.25245881e-003 -1.28910178e-005 4.43242630e-003 4.83292341e-003
      -8.37074686e-003 -9.15969443e-003 1.09220017e-002 6.60844054e-003
      -1.18752485e-002 -6.70262380e-003 1.35899195e-002 4.98795230e-003
      -1.14692990e-002 4.49588522e-004 5.50985569e-003 5.50985569e-003
      -7.62097491e-003 -1.95514201e-003 4.39082365e-003 5.18529397e-003
      -1.27472654e-002 -7.61802448e-003 1.00488709e-002 1.03164185e-002
      -2.49718521e-002 4.03073756e-003 1.03137325e-002 1.06273824e-002
      -2.09598839e-002 7.82044511e-003 6.18370716e-003 6.95573259e-003
      -1.83773842e-002 4.72679548e-003 6.67404383e-003 6.97654393e-003
      -2.13299766e-002 4.75155190e-003 8.92414246e-003 7.65428320e-003
      -2.36831848e-002 3.81448981e-003 1.26713468e-002 7.19734607e-003
      -2.01447010e-002 5.79995802e-003 7.15755345e-003 7.18719000e-003
      -1.54631892e-002 3.04373610e-003 6.55499101e-003 5.86446188e-003
      -2.41218973e-002 2.58167041e-003 1.06494157e-002 1.08908117e-002
      -2.50823703e-002 5.52373286e-003 8.76789074e-003 1.07907485e-002
      -2.27074642e-002 5.64921694e-003 1.12238033e-002 5.83444349e-003
      -2.02534311e-002 1.15015265e-002 4.37595323e-003 4.37595323e-003
      -2.48705149e-002 8.73227138e-003 8.49752873e-003 7.64071569e-003
      -2.46547069e-002 6.97982032e-003 1.09395823e-002 6.73530530e-003
      -2.45621409e-002 5.49504720e-003 1.48473615e-002 4.21973132e-003
      -2.28674766e-002 1.09607689e-002 6.51891064e-003 5.38779655e-003
      -2.51658503e-002 5.17449621e-003 9.25048813e-003 1.07408660e-002
      -2.29889397e-002 8.11552536e-003 5.19186072e-003 9.68155265e-003
      -1.26656396e-002 3.69523629e-003 3.69523629e-003 5.27516706e-003
      -8.77943262e-003 2.92647746e-003 2.92647746e-003 2.92647746e-003
      -1.87525470e-002 6.46575168e-003 6.34970423e-003 5.93709014e-003
      -1.81615017e-002 6.13207836e-003 6.88099023e-003 5.14843315e-003
      -1.98848322e-002 1.16828652e-002 6.19801832e-003 2.00394937e-003
      -1.95108112e-002 1.11351591e-002 4.59277164e-003 3.78288026e-003
      -2.37595290e-002 9.01371147e-003 6.17933366e-003 8.56648386e-003
      -8.77196621e-003 3.25479684e-003 9.86307045e-004 4.53086197e-003
      -1.98824075e-003 1.43313245e-003 4.59823932e-004 9.52845148e-005
      -1.69139227e-003 1.68407254e-003 9.94579314e-005 -9.21387764e-005
      -9.55573376e-003 5.20681590e-003 1.93751452e-003 2.41140206e-003
      -8.59461632e-003 3.72502091e-003 1.79344777e-003 3.07614729e-003
      -6.62988983e-003 2.62076291e-003 3.11756600e-003 8.91560747e-004
      -5.22267679e-003 3.96447582e-003 6.38638681e-004 6.19563391e-004
      -8.91601481e-003 4.58722562e-003 6.53644907e-004 3.67514347e-003
      -9.20728408e-003 3.02896183e-003 3.80995823e-003 2.36836309e-003
      -1.67768553e-003 5.59228531e-004 5.59228531e-004 5.59228531e-004
      -7.28976796e-004 2.42992013e-004 2.42992013e-004 2.42992013e-004
      -5.53586334e-003 3.03289713e-003 2.27973307e-003 2.23232855e-004
      -2.65703304e-003 4.09996253e-004 2.09847791e-003 1.48559571e-004
      -1.35267247e-003 4.46543883e-004 4.59585804e-004 4.46543883e-004
      -1.47044531e-003 1.16923999e-003 1.58479088e-004 1.42726203e-004
      -7.86649901e-003 9.51225986e-004 5.82575658e-003 1.08951656e-003
      -1.50038637e-002 -3.87413864e-004 8.28149635e-003 7.10978219e-003
      -9.48909670e-003 3.16303223e-003 3.16303223e-003 3.16303223e-003
      -9.02573578e-003 3.00857844e-003 3.00857844e-003 3.00857844e-003
      -2.00224500e-002 4.12326120e-003 1.16269505e-002 4.27223835e-003
      -2.12237798e-002 3.61133483e-003 1.35030262e-002 4.10942035e-003
      -1.18379518e-002 3.61142657e-003 4.23978502e-003 3.98674002e-003
      -1.17377797e-002 3.82866384e-003 4.04039538e-003 3.86872119e-003
      -1.53546575e-002 5.11800063e-005 9.45147686e-003 5.85199986e-003
      -7.28560239e-003 -7.36852596e-003 7.24013476e-003 7.41399359e-003
      -1.15628606e-002 3.42616462e-003 4.06834809e-003 4.06834809e-003
      -1.06839659e-002 2.51181400e-003 4.08607628e-003 4.08607628e-003
      -1.54684111e-002 -3.65974056e-003 1.31140342e-002 6.01411797e-003
      -1.05764735e-002 -7.84165040e-003 1.28591070e-002 5.55901555e-003
      -1.56666338e-002 3.60149774e-003 6.13938784e-003 5.92574896e-003
      -1.29291099e-002 3.51372315e-003 4.81451349e-003 4.60087415e-003
      -9.00498033e-003 -6.33406034e-003 9.31012724e-003 6.02891389e-003
      -8.43687542e-003 -6.95835939e-003 7.44174002e-003 7.95349386e-003
      -8.66693165e-003 -2.03738525e-003 5.35215857e-003 5.35215857e-003
      -1.10425008e-002 -7.80383591e-004 5.89135615e-003 5.93152875e-003
      -1.03990017e-002 -1.02024265e-002 1.42276268e-002 6.37380173e-003
      -9.56424419e-003 -1.03717614e-002 1.39039857e-002 6.03202078e-003
      -9.50211007e-003 -4.23481571e-004 4.43918025e-003 5.48641197e-003
      -7.10334815e-003 -5.39830979e-003 5.17348759e-003 7.32817082e-003
      -5.60852559e-003 -8.45901016e-003 8.20022635e-003 5.86730940e-003
      -1.98872164e-002 2.08543055e-003 8.91372096e-003 8.88806395e-003
      -1.88095514e-002 4.07051353e-004 1.35193421e-002 4.88315895e-003
      -2.22925879e-002 1.91110605e-003 1.55556705e-002 4.82580997e-003
      -2.43460070e-002 3.92563501e-003 1.49719240e-002 5.44844894e-003
      -2.38147713e-002 3.27332038e-003 1.48208179e-002 5.72063401e-003
      -1.80284977e-002 3.67252016e-003 7.13425130e-003 7.22172577e-003
      -2.11538449e-002 2.18634610e-003 7.67615438e-003 1.12913447e-002
      -2.38877479e-002 3.13543715e-003 1.03247659e-002 1.04275439e-002
      -2.49353182e-002 7.41895428e-003 8.90390854e-003 8.61245673e-003
      -2.25521773e-002 5.90024237e-003 1.07516926e-002 5.90024237e-003
      -2.35279128e-002 9.90375411e-003 8.66708439e-003 4.95707477e-003
      -2.48420015e-002 6.99901627e-003 1.23407971e-002 5.50218811e-003
      -2.47958135e-002 6.40575355e-003 1.07386103e-002 7.65145011e-003
      -2.34006047e-002 1.28384857e-002 5.28106000e-003 5.28106000e-003
      -2.42364537e-002 1.15304505e-002 7.00637838e-003 5.69962338e-003
      -2.52391603e-002 6.16267137e-003 8.75922013e-003 1.03172688e-002
      -2.44053900e-002 8.78475979e-003 7.21203070e-003 8.40859953e-003
      -1.86702665e-002 5.63662313e-003 5.63662313e-003 7.39701884e-003
      -1.30127706e-002 4.33759019e-003 4.33759019e-003 4.33759019e-003
      -1.62991881e-002 6.49463758e-003 4.61863959e-003 5.18591003e-003
      -1.67916548e-002 6.65249489e-003 4.06716717e-003 6.07199315e-003
      -1.25589743e-002 6.45032991e-003 3.72965634e-003 2.37898855e-003
      -1.93067435e-002 1.10807782e-002 5.91903972e-003 2.30692676e-003
      -2.30006129e-002 8.40486679e-003 7.55670713e-003 7.03903940e-003
      -9.29732155e-003 4.29663761e-003 1.85144891e-003 3.14923492e-003
      -2.69279000e-003 1.07900368e-003 1.38371042e-003 2.30075413e-004
      -1.54076412e-003 5.94114768e-004 6.92733913e-004 2.53915612e-004
      -8.63155350e-003 3.66618577e-003 1.37382932e-003 3.59153864e-003
      -8.52973852e-003 4.06299671e-003 8.65381036e-004 3.60136037e-003
      -1.02154480e-003 5.41667454e-004 2.39938221e-004 2.39938221e-004
      -3.00042774e-003 2.24541198e-003 5.52566897e-004 2.02448602e-004
      -8.97943787e-003 5.49804233e-003 1.35116256e-003 2.13023252e-003
      2.25799251e-003 -1.42424821e-003 -7.12540757e-004 -1.21203244e-004
      -1.82593983e-004 6.08643022e-005 6.08643022e-005 6.08643022e-005
      -3.19704472e-004 1.06568266e-004 1.06568266e-004 1.06568266e-004
      1.95689872e-003 -1.98888010e-003 1.59909487e-005 1.59909487e-005
      3.19716940e-003 -3.25453700e-003 2.86836330e-005 2.86836330e-005
      9.10113667e-005 2.57431075e-005 -4.80467170e-005 -6.87078646e-005
      4.58083203e-004 -1.50995125e-004 -1.53544228e-004 -1.53544228e-004
      1.30154064e-003 -1.72916183e-003 4.29020089e-004 -1.39802523e-006
      -2.94824969e-003 -1.03202101e-003 2.87811062e-003 1.10215938e-003
      -1.45652637e-004 4.85506753e-005 4.85506753e-005 4.85506753e-005
      1.72104177e-004 -5.73682082e-005 -5.73682082e-005 -5.73682082e-005
      -1.27401738e-003 1.24036055e-003 3.37712933e-008 3.36231096e-005
      1.20765402e-003 -1.34301232e-003 6.76788986e-005 6.76788986e-005
      5.71562850e-005 -5.18591833e-006 2.56274125e-005 -7.75972512e-005
      -1.96540132e-004 6.55133772e-005 6.55133772e-005 6.55133772e-005
      -5.42730000e-003 4.04399791e-004 4.16780170e-003 8.55098071e-004
      7.92525057e-003 -6.02926267e-003 1.24828133e-003 -3.14426911e-003
      1.98669033e-003 -1.14783552e-003 -4.19427408e-004 -4.19427408e-004
      4.45036869e-003 -2.59161647e-003 -9.29376285e-004 -9.29376285e-004
      1.58495363e-002 -9.76656470e-003 -3.66654876e-003 -2.41642189e-003
      1.30718360e-002 -7.33464304e-003 -4.82083438e-003 -9.16358840e-004
      -5.77964296e-004 -3.81171340e-005 3.34095705e-004 2.81985704e-004
      1.84376969e-003 -1.47351297e-003 -1.56009992e-004 -2.14247193e-004
      8.28416494e-004 -4.73534409e-003 3.26716760e-003 6.39760401e-004
      8.14249367e-003 -3.39901447e-003 -1.04247883e-003 -3.70100071e-003
      6.36712089e-003 -6.20603515e-003 -8.05425734e-005 -8.05425734e-005
      4.26563900e-003 -3.15623032e-003 -5.54704515e-004 -5.54704515e-004
      1.61142703e-002 -8.24701041e-003 -3.97540629e-003 -3.89185548e-003
      1.16341449e-002 -6.96117012e-003 -3.86488135e-003 -8.08093522e-004
      2.59018107e-003 -2.90395273e-003 1.56886250e-004 1.56886250e-004
      2.98612940e-005 -3.67124449e-005 1.59517640e-005 -9.10152721e-006
      1.27216300e-003 -5.59199927e-003 4.34839027e-003 -2.85528840e-005
      1.85294624e-003 -2.41691712e-003 3.03823123e-004 2.60147615e-004
      3.26363440e-003 -3.87758133e-003 3.06973496e-004 3.06973496e-004
      8.47709714e-004 -1.05004082e-003 1.01165278e-004 1.01165278e-004
      -3.01239896e-003 -1.21996607e-004 2.85271159e-003 2.81684013e-004
      1.85762660e-003 -3.01795872e-003 8.95048841e-004 2.65283219e-004
      3.70939233e-004 -1.73259852e-003 6.80830039e-004 6.80830039e-004
      -1.50967098e-003 -1.48841646e-004 9.49750363e-004 7.08761392e-004
      -4.80898144e-003 -2.80400011e-004 3.33419768e-003 1.75518414e-003
      -1.35226985e-002 3.60675878e-003 2.54395558e-003 7.37198396e-003
      -3.60140624e-003 2.82626599e-003 5.45575691e-004 2.29564059e-004
      -1.76931720e-003 1.04321830e-003 3.63050029e-004 3.63050029e-004
      -9.15202592e-003 3.43657518e-003 3.12033878e-003 2.59511219e-003
      -8.58008116e-003 3.65687720e-003 3.31537006e-003 1.60783448e-003
      -2.96378857e-003 1.26093207e-003 8.51428485e-004 8.51428485e-004
      -4.27731639e-003 3.19656194e-003 5.90267300e-004 4.90487320e-004
      -1.12651065e-002 5.53588523e-003 1.13859435e-003 4.59062774e-003
      -1.35235526e-002 3.34327715e-003 1.84896647e-003 8.33131000e-003
      -4.71880846e-003 1.57293642e-003 1.57293642e-003 1.57293642e-003
      -4.21929220e-003 1.40643062e-003 1.40643062e-003 1.40643062e-003
      -1.03754550e-002 2.85429810e-003 2.88075861e-003 4.64039808e-003
      -6.91696582e-003 5.62541885e-003 6.72307680e-004 6.19238592e-004
      -1.67594000e-003 1.40622107e-003 1.34859511e-004 1.34859511e-004
      -6.17743470e-003 5.31453546e-003 6.10077637e-004 2.52820988e-004
      -1.06762582e-002 6.21022889e-003 4.55524190e-004 4.01050551e-003
      -1.02414433e-002 2.58796616e-003 1.72954320e-003 5.92393335e-003
      -1.41316489e-003 1.21170946e-003 1.00727979e-004 1.00727979e-004
      -9.32481315e-004 4.47115919e-004 2.42682872e-004 2.42682872e-004
      -6.14967616e-003 1.51012302e-003 2.11601704e-003 2.52353586e-003
      -6.01795688e-003 4.66729049e-003 6.35778706e-004 7.14887690e-004
      -1.95248553e-003 1.67989801e-003 1.81440046e-004 9.11483585e-005
      -1.76138512e-003 7.73274805e-004 8.51219229e-004 1.36890274e-004
      -7.52246333e-003 4.12063813e-003 1.33405323e-003 2.06777221e-003
      -5.90217765e-003 1.84531338e-004 3.51832691e-003 2.19931896e-003
      -2.60836823e-004 1.47837447e-004 5.64997645e-005 5.64997645e-005
      -1.59180508e-005 -2.62358863e-005 2.10768758e-005 2.10768758e-005
      -6.65559713e-003 -4.85799741e-004 6.12966064e-003 1.01173692e-003
      -7.75242690e-003 1.13875943e-003 5.87720703e-003 7.36461312e-004
      -2.45331612e-004 1.16466348e-004 6.44324828e-005 6.44324828e-005
      -3.75788630e-004 3.25190311e-004 2.81481643e-005 2.24515243e-005
      -3.53795872e-003 -8.76701844e-004 2.67735776e-003 1.73730333e-003
      -7.59683200e-004 -6.11612340e-003 4.21065558e-003 2.66515091e-003
      9.86102386e-004 -1.09561929e-003 6.57106066e-005 4.38058196e-005
      4.20190301e-003 -3.83370207e-003 -2.66686868e-004 -1.01514808e-004
      5.94351254e-003 -7.79857161e-003 2.67859525e-003 -8.23536480e-004
      2.28187040e-004 -8.38231202e-003 7.72892218e-003 4.25202656e-004
      2.89330608e-003 -3.15174274e-003 1.29218679e-004 1.29218679e-004
      3.84110073e-003 -3.90866678e-003 -7.68893296e-005 1.44455000e-004
      5.23393322e-003 -8.23435094e-003 3.68066540e-004 2.63235136e-003
      -1.09377336e-002 1.53363997e-003 4.49746754e-003 4.90662549e-003
      -2.01805285e-003 6.34793658e-004 1.04297430e-003 3.40284692e-004
      -1.11199632e-004 -1.67297723e-004 8.48837517e-005 1.93613087e-004
      -8.40814598e-003 1.36525009e-003 2.89019453e-003 4.15270124e-003
      -1.03952121e-002 1.30716839e-003 5.91236446e-003 3.17567866e-003
      -3.95133486e-003 1.18183345e-003 2.58565578e-003 1.83845055e-004
      -4.24266094e-004 -1.65506266e-004 3.78284778e-004 2.11486971e-004
      -1.12163918e-002 1.06956228e-003 4.78703715e-003 5.35979262e-003
      -9.54211596e-003 3.38042504e-003 1.04362890e-003 5.11806272e-003
      -1.15718180e-003 7.14824826e-004 2.22586954e-004 2.19768786e-004
      -1.64836261e-003 1.49252894e-003 1.27564199e-004 2.82695582e-005
      -1.12156225e-002 3.78768845e-003 3.02543491e-003 4.40249918e-003
      -8.44095182e-003 2.90478859e-003 2.24726996e-003 3.28889443e-003
      -8.25963542e-003 5.48413815e-003 2.61933589e-003 1.56160517e-004
      -4.46893787e-003 4.02003480e-003 3.12844466e-004 1.36059170e-004
      -1.07573774e-002 5.60798589e-003 1.63442525e-003 3.51496576e-003
      -7.61354621e-003 -3.55429947e-004 4.53076418e-003 3.43821244e-003
      -2.53123435e-004 8.43746893e-005 8.43746893e-005 8.43746893e-005
      -1.91403858e-004 6.38013080e-005 6.38013080e-005 6.38013080e-005
      -6.79423008e-003 2.08323705e-003 4.17603785e-003 5.34954597e-004
      -3.29998555e-003 -6.92959467e-004 3.86301777e-003 1.29927692e-004
      -2.01775474e-004 -2.07997982e-005 1.49179948e-004 7.33958077e-005
      -4.80851624e-004 3.80172598e-004 6.43245658e-005 3.63543586e-005
      -7.12580513e-003 -3.44968226e-004 5.33812540e-003 2.13264697e-003
      1.54112268e-003 -6.04128232e-003 3.46082798e-003 1.03933085e-003
      4.52449592e-003 -4.62514628e-003 5.03250412e-005 5.03250412e-005
      4.14703880e-003 -4.29965463e-003 6.46444969e-005 8.79719155e-005
      5.10913273e-003 -9.04156826e-003 4.15228540e-003 -2.19850001e-004
      5.21095097e-003 -9.92559362e-003 3.90374847e-003 8.10893893e-004
      3.82233760e-003 -3.73253203e-003 -2.95898295e-004 2.06092009e-004
      4.55355505e-003 -4.88472171e-003 1.44802631e-004 1.86364050e-004
      -2.15818989e-003 -6.96681859e-003 6.26911409e-003 2.85589416e-003
      -7.42367236e-003 2.17525565e-004 2.96777324e-003 4.23837360e-003
      -6.77304459e-004 -1.37372839e-003 1.79197046e-003 2.59062363e-004
      -2.80479807e-003 -5.15531690e-004 2.99901725e-003 3.21311556e-004
      -1.03747789e-002 1.55423989e-003 7.21878279e-003 1.60175527e-003
      -8.88441317e-003 4.87890036e-004 6.13011792e-003 2.26640538e-003
      2.91599397e-004 -1.11540384e-003 3.92045215e-004 4.31758759e-004
      -4.83405078e-003 1.29846460e-003 1.63626927e-003 1.89931784e-003
      -1.19772339e-002 2.14347476e-003 4.57188673e-003 5.26187196e-003
      -1.20244259e-002 3.86887346e-003 2.34464300e-003 5.81091037e-003
      -1.79910357e-003 1.00392778e-003 6.11950294e-004 1.83224503e-004
      -8.64182308e-004 3.46159155e-004 3.69908666e-004 1.48114632e-004
      -8.80807731e-003 3.35583789e-003 2.07113056e-003 3.38110980e-003
      -8.42232443e-003 4.78700362e-003 1.17712445e-003 2.45819730e-003
      -1.49563386e-003 1.32804899e-003 1.14282069e-004 5.33021339e-005
      -6.22581830e-003 4.57161525e-003 1.55531836e-003 9.88851534e-005
      -1.07233217e-002 5.48771024e-003 2.16437900e-003 3.07123084e-003
      -3.00122285e-003 -3.18809203e-003 3.96043807e-003 2.22887681e-003
      1.71860692e-003 -1.74685346e-003 1.87047572e-005 9.54137067e-006
      2.37877015e-003 -2.35321326e-003 -3.44895634e-005 8.93308606e-006
      -1.36645301e-003 -3.35117383e-003 4.47575934e-003 2.41867267e-004
      -1.21493964e-003 -4.76687448e-003 5.45369461e-003 5.28120087e-004
      2.32717628e-003 -2.20313622e-003 -1.49797328e-004 2.57577140e-005
      2.27643899e-003 -2.29085190e-003 -2.24905689e-005 3.69041227e-005
      -2.28333240e-003 -3.88679584e-003 3.82843404e-003 2.34169490e-003
      -1.03584705e-002 2.36556097e-003 2.85604200e-003 5.13686799e-003
      -7.35325855e-004 -8.54462196e-005 6.50730683e-004 1.70041880e-004
      -1.17252150e-003 1.08991502e-004 9.76348179e-004 8.71796728e-005
      -9.66628361e-003 2.60307360e-003 3.61276139e-003 3.45044862e-003
      -9.37874615e-003 2.42957380e-003 4.16009873e-003 2.78907502e-003
      -2.39755306e-003 1.45304948e-003 9.06560686e-004 3.79430130e-005
      -3.70189198e-003 2.62222812e-003 8.89135757e-004 1.90527906e-004
      -1.14620449e-002 3.62455240e-003 3.41412984e-003 4.42336220e-003</_>
    <_>
      6.74595358e-003 -1.02489092e-003 -5.44897048e-003 -2.72092118e-004
      9.27750487e-004 -4.08171007e-004 -5.21056099e-005 -4.67473117e-004
      2.04947242e-003 -2.68785720e-004 -2.44283554e-004 -1.53640145e-003
      -8.64845177e-004 4.45618265e-004 5.56675950e-004 -1.37449053e-004
      2.04015509e-004 6.32328272e-004 4.42011835e-004 -1.27835525e-003
      9.78786685e-003 -1.63513774e-004 -7.77963360e-005 -9.54655744e-003
      1.29180832e-003 1.26742263e-004 -1.96293273e-004 -1.22225774e-003
      5.47689758e-003 2.21785577e-003 -2.96469266e-003 -4.73006163e-003
      1.49211697e-002 -4.38412046e-003 -9.90658626e-003 -6.30464696e-004
      4.32658428e-003 -1.75711489e-003 -3.85813910e-004 -2.18365435e-003
      6.19332772e-003 -9.99965705e-004 -2.41947034e-003 -2.77388981e-003
      -7.66519131e-003 1.84954284e-003 5.44621516e-003 3.69436690e-004
      1.88909087e-003 -3.84553947e-004 2.79007480e-003 -4.29461058e-003
      7.25999055e-003 3.68939975e-004 -2.83002824e-004 -7.34592741e-003
      1.70174486e-003 5.63152484e-004 -3.71779752e-004 -1.89311709e-003
      2.11657491e-003 2.96447240e-003 -1.52659335e-003 -3.55445291e-003
      1.25108389e-002 -6.02754904e-003 -2.75809760e-003 -3.72519461e-003
      1.13667212e-002 -3.60361580e-003 -4.80398908e-003 -2.95911450e-003
      9.22614615e-003 -2.23329640e-003 -3.57510452e-003 -3.41774547e-003
      2.92481226e-003 -3.78289376e-003 3.09157115e-003 -2.23348988e-003
      2.12807581e-003 -2.61899526e-003 5.05738519e-003 -4.56646644e-003
      1.27327293e-002 -2.68564629e-003 -4.51943604e-003 -5.52764535e-003
      1.17952870e-002 -4.15067049e-003 -1.28283142e-003 -6.36178628e-003
      1.00757405e-002 -5.62218437e-003 -2.97795446e-003 -1.47560262e-003
      4.91033914e-003 1.44016393e-003 -5.54724014e-004 -5.79577917e-003
      1.23283872e-002 -4.83146915e-003 -5.19265560e-003 -2.30426155e-003
      1.65401157e-002 -3.33151128e-003 -1.07817417e-002 -2.42686342e-003
      4.19140374e-003 -3.51508008e-003 1.39831437e-003 -2.07463815e-003
      1.14293769e-003 3.11189098e-004 6.65389514e-003 -8.10802262e-003
      7.11905118e-003 -2.30563967e-003 -3.84482183e-003 -9.68589855e-004
      1.51195247e-002 -2.81786453e-003 -5.06318174e-003 -7.23847793e-003
      3.25548043e-003 -9.12869407e-004 -3.00573464e-003 6.63123094e-004
      -1.07853557e-003 1.70808542e-003 3.10476660e-003 -3.73431668e-003
      1.90179690e-003 -1.98448380e-003 -6.61977392e-004 7.44665274e-004
      1.03930430e-002 -5.75578026e-003 -3.04990844e-003 -1.58735353e-003
      -3.82277183e-003 -3.48145782e-004 3.04129161e-003 1.12962606e-003
      2.66851042e-004 2.32975883e-003 4.07603057e-003 -6.67264126e-003
      4.59071435e-003 -1.43216923e-003 -1.23970129e-003 -1.91884302e-003
      4.85329237e-003 -2.29630712e-003 -2.42363382e-003 -1.33351321e-004
      -4.63857502e-003 -6.33314019e-004 2.16098712e-003 3.11090029e-003
      -9.58617684e-003 4.13363363e-004 3.44282994e-003 5.72998170e-003
      -5.71560813e-003 -8.10897676e-004 1.46629789e-003 5.06020803e-003
      -2.18861489e-004 -7.53681175e-004 4.86270932e-004 4.86270932e-004
      -1.42675545e-002 1.49888755e-003 2.50900257e-003 1.02596646e-002
      -7.41550839e-003 5.04133198e-003 6.56784105e-004 1.71739084e-003
      -2.70024873e-003 1.96552672e-003 3.67360888e-004 3.67360888e-004
      -3.57702351e-003 2.94631952e-003 3.57170822e-004 2.73532351e-004
      -1.39398128e-002 4.34223050e-003 5.17436909e-003 4.42321273e-003
      -1.31871086e-002 2.69226683e-003 6.64887601e-004 9.82995518e-003
      -2.65027606e-003 8.83425120e-004 8.83425120e-004 8.83425120e-004
      -1.98424514e-003 9.63450293e-004 5.10397542e-004 5.10397542e-004
      -1.79868825e-002 2.61169416e-003 4.96274093e-003 1.04124499e-002
      -9.91385989e-003 1.69616507e-003 8.53501086e-004 7.36419298e-003
      -2.27666413e-003 1.56118476e-003 3.57740530e-004 3.57740530e-004
      -4.53052670e-003 4.12831316e-003 2.26323624e-004 1.75889276e-004
      -1.48767009e-002 9.12975054e-003 1.26430590e-003 4.48264368e-003
      -9.45701730e-003 2.17857352e-003 1.60100101e-003 5.67744253e-003
      -9.77377407e-004 3.25792731e-004 3.25792731e-004 3.25792731e-004
      -3.07684182e-003 2.65093031e-003 2.12956686e-004 2.12956686e-004
      -1.53344981e-002 6.52667508e-003 3.59260757e-003 5.21521689e-003
      -1.05544589e-002 3.56702530e-003 1.50711450e-003 5.48031926e-003
      -4.52365144e-004 5.16792992e-004 -3.22142369e-005 -3.22142369e-005
      -3.39413877e-003 3.33658303e-003 2.87790917e-005 2.87790917e-005
      -1.16796419e-002 7.34688295e-003 1.02707208e-003 3.30568897e-003
      -5.29260561e-003 3.54162417e-003 8.32060818e-004 9.18919512e-004
      -1.71307055e-003 7.74692860e-004 4.29849635e-004 5.08526224e-004
      1.04478595e-003 2.46079697e-004 2.98935483e-004 -1.58980046e-003
      -9.41289309e-003 3.77883203e-003 5.35783404e-003 2.76225590e-004
      -1.03907632e-002 5.43564558e-003 5.39246481e-003 -4.37345559e-004
      8.84932559e-003 3.33007891e-004 3.33007891e-004 -9.51534044e-003
      8.25984590e-003 -1.70628668e-003 -1.18600950e-003 -5.36754634e-003
      1.83272758e-003 2.35775555e-003 -2.71329598e-004 -3.91915301e-003
      -1.37413237e-002 -2.63571437e-003 6.02726638e-003 1.03497710e-002
      -1.67328361e-002 5.47335669e-003 5.58767375e-003 5.67180431e-003
      -1.58005673e-002 5.21034235e-003 5.84585220e-003 4.74437186e-003
      -1.78124979e-002 9.32667230e-004 1.53322453e-002 1.54758559e-003
      -2.18140446e-002 4.65847226e-003 1.43070929e-002 2.84847990e-003
      -9.58439987e-003 6.98153581e-003 7.18279649e-003 -4.57993289e-003
      -5.21202618e-003 3.86300101e-003 2.44280533e-003 -1.09378074e-003
      -2.40016636e-002 2.06553683e-004 1.10655716e-002 1.27295386e-002
      -1.75002441e-002 -1.19373677e-002 1.57239977e-002 1.37136141e-002
      -8.82972870e-003 -1.08574831e-003 4.26141080e-003 5.65406540e-003
      -9.64002311e-003 2.92237755e-003 3.75768705e-003 2.95995898e-003
      -7.48458784e-003 -1.28930593e-002 1.58919748e-002 4.48567048e-003
      -7.02763116e-003 -1.52305085e-002 1.94622241e-002 2.79591652e-003
      -2.74855597e-003 -2.59341090e-003 6.06714934e-003 -7.25182181e-004
      -5.81335649e-003 -2.33289227e-003 5.65511500e-003 2.49113189e-003
      -2.43006982e-002 -5.98649494e-003 1.50729027e-002 1.52142905e-002
      -1.16480561e-002 -9.74054169e-003 8.70174821e-003 1.26868514e-002
      -4.69185924e-003 -1.76666211e-003 9.42861137e-004 5.51566062e-003
      2.65817228e-003 -3.01196682e-003 -6.04001665e-003 6.39381073e-003
      -8.33593402e-003 -8.38036090e-003 9.44260135e-003 7.27369357e-003
      -1.03973383e-002 -7.83609040e-003 1.44834975e-002 3.74993030e-003
      3.65150790e-003 -4.43233503e-003 -2.18243175e-003 2.96325888e-003
      -1.81188853e-003 -5.55405533e-003 -2.46630725e-003 9.83225089e-003
      -1.54573396e-002 -1.22410282e-002 1.20996814e-002 1.55986845e-002
      -6.84375037e-003 -9.69139673e-003 2.52290233e-003 1.40122445e-002
      -7.31783081e-003 -5.97663282e-004 2.55149859e-003 5.36399567e-003
      -6.40024152e-003 -1.23031368e-003 -4.37774521e-004 8.06833059e-003
      -1.03870928e-002 5.09376638e-003 1.01533439e-003 4.27799253e-003
      -1.70477033e-002 -1.43967289e-003 1.34681370e-002 5.01923729e-003
      -8.59246776e-003 8.31432641e-004 -2.44598377e-005 7.78549490e-003
      -9.14747547e-003 -4.50739358e-003 5.83429774e-003 7.82057084e-003
      -2.71839071e-002 3.04146204e-003 8.77595693e-003 1.53664881e-002
      -2.46563815e-002 -6.34200755e-004 1.01018324e-002 1.51887499e-002
      -2.36000512e-002 3.30893160e-003 1.08598815e-002 9.43123829e-003
      -1.88725237e-002 8.54342617e-003 3.67974606e-003 6.64935075e-003
      -2.97790263e-002 8.60210415e-003 9.89569165e-003 1.12812296e-002
      -3.41218971e-002 8.73358827e-003 1.56306662e-002 9.75764170e-003
      -2.66361590e-002 1.06677727e-003 1.93153881e-002 6.25399360e-003
      -2.81302501e-002 9.62837785e-003 1.19498530e-002 6.55201962e-003
      -3.58286425e-002 6.66042557e-003 1.38469376e-002 1.53212780e-002
      -3.42200622e-002 1.28177162e-002 7.59549346e-003 1.38068506e-002
      -2.01105271e-002 6.26215944e-003 6.26215944e-003 7.58620631e-003
      -1.39874015e-002 4.66246717e-003 4.66246717e-003 4.66246717e-003
      -2.79653408e-002 9.68397129e-003 9.46031883e-003 8.82105157e-003
      -2.46876869e-002 8.03710055e-003 9.59385093e-003 7.05673592e-003
      -2.55235452e-002 1.62123889e-002 7.74139026e-003 1.56976713e-003
      -2.83758081e-002 1.36502637e-002 6.51401933e-003 8.21152516e-003
      -3.47028747e-002 1.19297327e-002 9.78063047e-003 1.29925134e-002
      -1.26706334e-002 5.80912689e-003 1.30359037e-003 5.55791426e-003
      -4.10504080e-003 2.77348910e-003 1.16858480e-003 1.62966913e-004
      -3.50368931e-003 2.83024390e-003 4.80393268e-004 1.93051208e-004
      -1.39192631e-002 7.45157758e-003 2.87203351e-003 3.59565252e-003
      -1.18338289e-002 5.00548305e-003 2.47072754e-003 4.35761968e-003
      -8.00975319e-003 3.05368216e-003 4.10902407e-003 8.47044517e-004
      -8.21674895e-003 5.97402267e-003 9.13276628e-004 1.32944947e-003
      -1.27547253e-002 6.17585052e-003 1.04842987e-003 5.53044537e-003
      -9.12784785e-003 1.52186467e-003 5.44553669e-003 2.16044555e-003
      -1.82469445e-003 8.41931673e-004 8.41931673e-004 1.40831326e-004
      -2.43519340e-003 8.11731094e-004 8.11731094e-004 8.11731094e-004
      -4.26608603e-003 4.49613342e-003 1.01772067e-003 -1.24776852e-003
      4.57535265e-003 1.48582656e-003 -1.23330893e-003 -4.82786912e-003
      2.63559679e-003 -1.84263638e-003 -1.44162696e-005 -7.78542832e-004
      -1.00011367e-003 2.63214588e-005 7.44656369e-004 2.29135971e-004
      -9.48921125e-003 1.34800537e-003 7.28470972e-003 8.56495870e-004
      -1.73493382e-002 -2.54767202e-003 1.32173840e-002 6.67962572e-003
      -8.87622032e-003 1.54008716e-003 3.84908891e-003 3.48704471e-003
      -8.31162464e-003 1.49641396e-003 3.40760546e-003 3.40760546e-003
      -1.33218970e-002 -1.73069746e-003 9.81780887e-003 5.23478584e-003
      -1.73334256e-002 -2.17089499e-003 1.56992227e-002 3.80509812e-003
      -1.00242142e-002 -1.84329273e-003 8.74928012e-003 3.11822630e-003
      -1.48186451e-002 -8.91190430e-004 1.06639778e-002 5.04585728e-003
      -1.48956412e-002 -5.07350592e-003 1.05247945e-002 9.44435224e-003
      -1.56110022e-002 -6.85889367e-003 1.31213404e-002 9.34855361e-003
      -1.11074522e-002 3.28013184e-003 3.52270971e-003 4.30461019e-003
      -7.29176775e-003 -2.14990880e-003 4.01289528e-003 5.42878313e-003
      -1.65796783e-002 -8.17515887e-003 1.75697450e-002 7.18509126e-003
      -2.94287838e-002 -5.09925303e-004 2.16851700e-002 8.25353898e-003
      -1.87467579e-002 -5.32211328e-004 1.27356956e-002 6.54327264e-003
      -1.17001105e-002 -2.98055564e-003 1.00453636e-002 4.63530282e-003
      -1.94736943e-002 -5.13407681e-003 1.43720778e-002 1.02356942e-002
      -8.74854252e-003 -7.04720803e-003 6.88609527e-003 8.90965480e-003
      -2.80003296e-003 -1.52438495e-003 2.21940281e-004 4.10247780e-003
      9.62101447e-004 -2.99676857e-003 1.06969161e-003 9.64975567e-004
      -1.02368481e-002 -1.17460778e-002 1.51796294e-002 6.80329697e-003
      -1.33863371e-002 -1.84373697e-003 1.40070906e-002 1.22298452e-003
      -5.60850138e-003 -2.41151988e-003 1.24362437e-003 6.77639712e-003
      -1.09682919e-003 -3.18154297e-003 8.91354494e-003 -4.63517150e-003
      -5.85856149e-003 -1.08798016e-002 7.58734951e-003 9.15101543e-003
      -1.17675448e-002 1.29255163e-003 5.26787573e-003 5.20711718e-003
      -5.12554357e-003 -8.24132527e-004 1.12092458e-002 -5.25956787e-003
      -1.08049596e-002 -4.60656732e-003 1.92156285e-002 -3.80410138e-003
      -1.47462375e-002 -3.08019621e-003 1.88668128e-002 -1.04037998e-003
      -1.02914236e-002 1.78987498e-003 1.36349136e-002 -5.13336435e-003
      -1.71875898e-002 3.93055845e-003 3.55245871e-003 9.70457308e-003
      -9.86298919e-003 -7.25442823e-003 2.83954013e-003 1.42778773e-002
      -8.09737761e-003 -9.48483683e-003 1.02990633e-002 7.28314975e-003
      -2.72954069e-002 7.99106061e-003 9.29268729e-003 1.00116609e-002
      -1.72490925e-002 4.67160826e-005 1.11175496e-002 6.08482771e-003
      -2.12770905e-002 7.67260697e-003 1.00313816e-002 3.57310311e-003
      -2.69474108e-002 6.58323662e-003 1.44711565e-002 5.89301763e-003
      -3.23040895e-002 7.65695237e-003 1.42257893e-002 1.04213506e-002
      -2.63529494e-002 1.21900178e-002 6.20151125e-003 7.96142034e-003
      -2.67182160e-002 7.76727172e-003 9.39285848e-003 9.55808721e-003
      -3.21865454e-002 4.47092159e-003 1.25040449e-002 1.52115794e-002
      -3.63108478e-002 1.29096173e-002 1.07601164e-002 1.26411123e-002
      -2.78691407e-002 8.99275299e-003 8.99275299e-003 9.88363475e-003
      -1.78055651e-002 5.93518838e-003 5.93518838e-003 5.93518838e-003
      -2.83141024e-002 1.18078589e-002 7.80548807e-003 8.70075542e-003
      -2.83253491e-002 1.12597272e-002 7.02826679e-003 1.00373542e-002
      -1.88372657e-002 9.62950103e-003 5.46188001e-003 3.74588394e-003
      -2.84565147e-002 1.53976707e-002 7.38539174e-003 5.67345228e-003
      -3.56848612e-002 1.32173505e-002 1.10922968e-002 1.13752112e-002
      -1.40386662e-002 6.56657526e-003 2.74199201e-003 4.73009842e-003
      -4.31759702e-003 1.30735664e-003 2.58651935e-003 4.23719699e-004
      -2.90539488e-003 9.30796086e-004 1.31086505e-003 6.63732935e-004
      -1.29256202e-002 5.35333715e-003 2.13031447e-003 5.44196879e-003
      -1.20510831e-002 5.53240720e-003 1.21983967e-003 5.29883662e-003
      -9.62774036e-004 5.66357514e-004 1.98208785e-004 1.98208785e-004
      -5.86881675e-003 3.28995753e-003 4.66559723e-004 2.11229827e-003
      -1.39705641e-002 8.20793584e-003 2.18102825e-003 3.58160120e-003
      -9.19733022e-004 2.25316454e-003 -2.79077824e-004 -1.05435436e-003
      2.98588863e-003 -2.27169803e-004 -5.86248818e-004 -2.17247242e-003
      -6.08405717e-005 1.47695391e-004 -2.27478231e-005 -6.41069055e-005
      4.37524682e-003 -1.15852454e-003 -2.80739716e-003 -4.09325148e-004
      1.20000467e-002 -9.76461335e-004 -3.15082329e-003 -7.87276216e-003
      5.77776227e-003 1.66452723e-003 5.76070197e-005 -7.49989739e-003
      1.13637215e-002 -1.21720880e-003 -1.25980849e-004 -1.00205317e-002
      1.04300409e-004 7.53690256e-004 -3.21682572e-004 -5.36308216e-004
      -7.72515265e-003 4.69280500e-003 4.23561037e-003 -1.20326236e-003
      5.38074970e-003 -2.41541723e-003 -1.36796350e-003 -1.59737025e-003
      4.41487273e-003 -2.20435415e-003 -9.90399509e-004 -1.22012070e-003
      1.08809881e-002 -2.46512285e-003 -7.60438154e-003 -8.11485574e-004
      1.14512360e-002 -1.88860646e-003 -4.56411112e-003 -4.99851909e-003
      9.27928090e-003 2.19406979e-003 6.46543704e-005 -1.15380045e-002
      9.85691976e-003 -1.05959398e-003 -8.70469550e-004 -7.92685617e-003
      -5.71404630e-003 1.12210156e-003 4.01426852e-003 5.77675644e-004
      1.22610910e-003 -4.26684273e-003 5.18799759e-003 -2.14726408e-003
      9.05759819e-003 -1.83465390e-003 -3.07527208e-003 -4.14767209e-003
      1.01771783e-002 -4.60831542e-003 -2.96589104e-003 -2.60297139e-003
      1.58101246e-002 -7.38287997e-003 -5.23620564e-003 -3.19103897e-003
      1.15655074e-002 -7.48858647e-003 -1.00259145e-003 -3.07432981e-003
      1.68311670e-002 -9.20080859e-003 -3.97823984e-003 -3.65211884e-003
      1.66697484e-002 -5.22317970e-003 -9.55303665e-003 -1.89353130e-003
      7.69560051e-004 -4.19554068e-003 4.01899777e-003 -5.93016157e-004
      2.80790031e-003 2.86340131e-003 -1.12326513e-003 -4.54803649e-003
      7.71992467e-003 -1.48621341e-003 -3.12920776e-003 -3.10450257e-003
      1.02925580e-002 -3.50496685e-003 -3.49045033e-003 -3.29714222e-003
      1.10409465e-002 -2.07026373e-003 -2.54065893e-003 -6.43002475e-003
      8.59028939e-003 -8.15297104e-003 1.33098511e-003 -1.76830380e-003
      1.30586205e-002 -5.08809974e-003 -4.91367420e-003 -3.05684539e-003
      1.42209632e-002 2.28036311e-004 -7.15074921e-003 -7.29825068e-003
      6.42515603e-004 2.63565755e-003 2.55210814e-003 -5.83028048e-003
      -3.23391659e-003 4.30241140e-004 -2.11485880e-004 3.01516149e-003
      5.37714129e-003 -3.98195768e-003 -7.22242345e-004 -6.72941096e-004
      1.24792289e-002 -3.43581382e-003 -2.76658987e-003 -6.27682544e-003
      3.93019058e-003 5.07129589e-004 2.32613995e-003 -6.76345965e-003
      5.23582241e-003 -3.79768806e-003 -1.08870876e-003 -3.49424750e-004
      8.34149891e-004 -3.00692773e-004 5.14031795e-004 -1.04748784e-003
      1.08632678e-002 -2.20815116e-003 -4.33279760e-003 -4.32231976e-003
      -7.58579001e-004 5.83054358e-003 1.18862768e-003 -6.26059109e-003
      -1.63665116e-002 2.22836901e-003 3.17947590e-003 1.09586651e-002
      -4.38060192e-003 2.73911329e-003 1.19275576e-003 4.48734383e-004
      2.65593710e-003 -2.05143145e-003 -5.02360461e-004 -1.02146325e-004
      -1.00060701e-002 3.03132110e-003 3.84925026e-003 3.12549854e-003
      -9.57481004e-003 2.33736378e-003 4.74526919e-003 2.49217637e-003
      -2.34358921e-003 5.52315381e-004 5.68817195e-004 1.22245622e-003
      2.85912043e-004 -1.89730222e-003 2.58490065e-004 1.35289971e-003
      -1.03985723e-002 4.84601595e-003 7.55072615e-005 5.47704985e-003
      -2.06586327e-002 4.74477978e-003 3.11946147e-003 1.27943913e-002
      -1.01382788e-002 3.37942666e-003 3.37942666e-003 3.37942666e-003
      -8.59200954e-003 2.86400341e-003 2.86400341e-003 2.86400341e-003
      -1.37588233e-002 3.77959339e-003 3.64482077e-003 6.33440772e-003
      -1.04206903e-002 8.38138070e-003 1.04946515e-003 9.89844440e-004
      -2.71192449e-003 2.40420434e-003 1.59706426e-004 1.48015955e-004
      -7.52300676e-003 4.51609399e-003 3.99784360e-004 2.60712858e-003
      -1.63513515e-002 9.03003104e-003 6.35004893e-004 6.68631494e-003
      -1.63052715e-002 3.74388811e-003 3.04105808e-003 9.52032581e-003
      -2.23648269e-003 1.18134147e-003 5.27570723e-004 5.27570723e-004
      -2.72148568e-003 9.76133335e-004 8.72676144e-004 8.72676144e-004
      -9.35716275e-003 2.31491169e-003 3.19929654e-003 3.84295452e-003
      -9.13689844e-003 7.03243492e-003 1.00197399e-003 1.10248895e-003
      -3.38031771e-003 3.03713162e-003 2.83499656e-004 5.96883619e-005
      -4.00914857e-003 8.39740969e-004 8.42404668e-004 2.32700305e-003
      -1.14016207e-002 6.53952779e-003 1.55942654e-003 3.30266589e-003
      2.32265377e-003 -2.71910243e-003 -1.83936907e-003 2.23581796e-003
      1.92113477e-003 -9.37782286e-004 -1.58476862e-004 -8.24876130e-004
      3.40899522e-003 -6.26400695e-004 -8.62840563e-004 -1.91975408e-003
      -1.09180110e-002 1.76045462e-003 8.42314120e-003 7.34416535e-004
      -6.95946068e-003 8.24302726e-004 6.97817141e-003 -8.43013288e-004
      1.03810346e-002 -2.63094291e-004 -2.09983613e-004 -9.90795624e-003
      5.54821361e-003 -5.23009105e-004 -1.30683731e-003 -3.71836568e-003
      -6.45510969e-004 1.05988025e-003 6.49381313e-004 -1.06374954e-003
      1.53722917e-003 -8.74676369e-003 5.53757325e-003 1.67196000e-003
      1.36443684e-002 -7.55105494e-003 -4.48659481e-003 -1.60671782e-003
      1.81309804e-002 -6.17367914e-003 -9.85305198e-003 -2.10425002e-003
      -1.36655883e-003 -6.97486941e-003 7.70770479e-003 6.33723976e-004
      -1.07783024e-004 -6.76612649e-003 1.09836170e-002 -4.10970859e-003
      2.15464626e-002 -9.06997453e-003 -6.63217437e-003 -5.84431319e-003
      1.78900883e-002 -8.96121655e-003 -5.44275437e-003 -3.48611828e-003
      -5.86121052e-004 -8.35853070e-003 3.85116739e-003 5.09348325e-003
      -6.71753148e-003 -2.60241004e-003 4.59002145e-003 4.72991914e-003
      6.39928225e-003 -5.49937459e-003 -1.54540606e-003 6.45499385e-004
      1.03788571e-002 -5.69362240e-003 -4.36927425e-003 -3.15959915e-004
      -1.03678890e-002 1.93268561e-003 2.79960083e-003 5.63560193e-003
      -6.58616796e-003 1.48492551e-003 7.31222052e-003 -2.21097888e-003
      7.97256734e-003 -4.88490425e-003 -1.69503118e-003 -1.39263365e-003
      6.62448909e-003 -3.63926077e-003 -2.43516685e-003 -5.50061290e-004
      -1.45344175e-002 3.62610037e-004 6.30583102e-003 7.86597840e-003
      -1.37551324e-002 4.75125993e-003 1.63349940e-003 7.37037184e-003
      -2.20613810e-003 1.34208938e-003 5.59956010e-004 3.04091605e-004
      -2.65285908e-003 2.27642548e-003 2.62350542e-004 1.14082803e-004
      -1.68117844e-002 5.78444637e-003 4.49247705e-003 6.53486140e-003
      -1.23908194e-002 4.25999425e-003 3.29873129e-003 4.83209314e-003
      -1.18820397e-002 8.04040302e-003 3.71685368e-003 1.24782018e-004
      -6.63645705e-003 5.15302876e-003 6.42845116e-004 8.40582710e-004
      -1.57293975e-002 7.54113588e-003 2.42171600e-003 5.76654635e-003
      -1.09961517e-002 1.07491063e-003 7.37136044e-003 2.54987995e-003
      3.05873319e-003 -1.71024434e-003 -4.17387666e-004 -9.31100745e-004
      2.03905837e-003 -1.17747858e-003 -2.68036587e-004 -5.93542878e-004
      -1.91677676e-003 5.82962879e-004 1.33942184e-003 -5.60634317e-006
      4.25697025e-003 -1.11846905e-003 1.86771993e-003 -5.00622019e-003
      5.34566119e-003 -5.09630365e-004 2.11020670e-004 -5.04705170e-003
      4.66366624e-003 -1.26905192e-003 7.48373976e-004 -4.14298708e-003
      -8.77414830e-003 -3.83988314e-004 6.16525393e-003 2.99288169e-003
      -5.70990704e-003 -3.77965253e-003 6.75462140e-003 2.73493840e-003
      1.22856367e-002 -4.48690588e-003 -4.57891077e-003 -3.21982126e-003
      1.46011636e-002 -7.17827398e-003 -3.94404307e-003 -3.47884744e-003
      2.64994777e-003 -8.57111625e-003 6.39291061e-003 -4.71740554e-004
      8.82350490e-004 -7.67110754e-003 8.00249446e-003 -1.21373741e-003
      1.35435723e-002 -8.11885297e-003 -3.60077061e-003 -1.82395033e-003
      1.55359758e-002 -5.51556097e-003 -3.00637353e-003 -7.01404037e-003
      -5.25642931e-003 -3.89912678e-003 7.30535109e-003 1.85020431e-003
      -9.71914455e-003 1.07473775e-003 2.49384507e-003 6.15056185e-003
      7.12096598e-003 -3.98659101e-003 -4.56891663e-004 -2.67748185e-003
      8.59236531e-003 -5.70755359e-003 1.66289404e-003 -4.54770587e-003
      -5.30795520e-003 -8.17665714e-004 8.35425686e-003 -2.22863653e-003
      -4.34709713e-003 -9.29635717e-004 5.99491084e-003 -7.18177354e-004
      6.51779817e-003 -3.60867940e-003 -2.77963420e-003 -1.29485270e-004
      5.36112115e-003 -4.73197410e-003 -5.29010838e-004 -1.00137149e-004
      -8.21173470e-003 1.70626468e-003 4.22595441e-003 2.27951421e-003
      -1.84763502e-002 5.67658897e-003 3.75422114e-003 9.04553942e-003
      -3.16671678e-003 1.06357620e-003 1.68788119e-003 4.15258168e-004
      -1.72232965e-003 5.51831559e-004 7.49120081e-004 4.21377597e-004
      -1.34323398e-002 5.26298769e-003 3.09049711e-003 5.07885637e-003
      -1.26380045e-002 7.20332889e-003 1.76443893e-003 3.67023773e-003
      -2.56612315e-003 2.27237539e-003 1.93530839e-004 1.00214937e-004
      -1.06097674e-002 6.31363969e-003 1.85659097e-003 2.43953662e-003
      -1.66772008e-002 8.43488239e-003 3.09097767e-003 5.15133841e-003
      -3.08268634e-003 -3.76156019e-003 4.22855187e-003 2.61569489e-003
      9.70786903e-003 -4.50630952e-003 -3.22004734e-003 -1.98151381e-003
      1.09045040e-002 -4.57599945e-003 -4.09410289e-003 -2.23440048e-003
      -4.08357894e-003 -2.83856736e-003 6.23873202e-003 6.83413760e-004
      -1.00019504e-003 -3.32421483e-003 7.26951659e-003 -2.94510531e-003
      1.36400983e-002 -5.84540842e-003 -2.97681196e-003 -4.81787976e-003
      1.41133079e-002 -5.83864516e-003 -3.65557242e-003 -4.61908942e-003
      -3.84618994e-003 -2.81818793e-003 4.54415288e-003 2.12022476e-003
      -1.30945807e-002 2.45315768e-003 3.52948089e-003 7.11194240e-003
      2.36605946e-003 -2.39979243e-003 -3.29914910e-004 3.63648200e-004
      4.01497539e-003 -2.37033004e-003 -3.06009199e-004 -1.33863685e-003
      -1.22500239e-002 3.39792436e-003 4.64950828e-003 4.20259079e-003
      -9.83782485e-003 3.16739129e-003 5.18695824e-003 1.48347614e-003
      3.69161856e-003 -9.13510798e-004 -1.81050703e-003 -9.67601489e-004
      1.87651452e-003 -6.45907247e-004 -1.24537584e-003 1.47695810e-005
      -1.44231608e-002 4.70175082e-003 4.22748085e-003 5.49392821e-003</_>
    <_>
      8.78272403e-004 -5.80471533e-004 -1.62127253e-004 -1.35672948e-004
      1.57792456e-005 -5.25958194e-006 -5.25958194e-006 -5.25958194e-006
      5.98578015e-004 -1.99525573e-004 -1.99525573e-004 -1.99525573e-004
      7.49623403e-004 -7.47607381e-004 -1.43603920e-005 1.23441941e-005
      -4.07661981e-004 3.54541815e-004 7.17217190e-005 -1.86008820e-005
      1.85888537e-004 -9.08440124e-005 -4.75228117e-005 -4.75228117e-005
      -2.93355297e-005 -1.02695296e-004 6.60151636e-005 6.60151636e-005
      1.33392692e-003 -5.98079758e-004 -3.08639224e-004 -4.27207560e-004
      8.15821160e-003 2.31318918e-004 -1.03891920e-003 -7.35061103e-003
      1.53771543e-003 -1.28662982e-003 -2.51707534e-004 6.21889512e-007
      1.95714412e-003 -7.55223911e-004 -7.55223911e-004 -4.46696969e-004
      -1.04698862e-004 7.46054226e-004 -5.84852183e-004 -5.65027767e-005
      1.11167058e-002 -1.65517780e-003 -3.57520720e-003 -5.88632049e-003
      1.26236789e-002 -1.28004337e-002 1.74408779e-005 1.59313771e-004
      1.20541127e-002 -1.08887730e-002 -7.87816069e-004 -3.77524120e-004
      8.22119229e-003 -1.11506053e-003 -9.86750354e-004 -6.11938210e-003
      8.00394733e-003 7.77197885e-004 -1.57917652e-003 -7.20196869e-003
      1.22044655e-003 -8.75333732e-004 -2.25705546e-004 -1.19407989e-004
      4.02652688e-004 -1.26099418e-004 -1.50453052e-004 -1.26099418e-004
      4.87592816e-003 -5.25303604e-003 -2.46495474e-003 2.84206215e-003
      1.15902117e-002 -2.41711014e-003 -6.54582307e-003 -2.62727868e-003
      1.35587240e-002 -1.32897571e-002 -4.75016568e-004 2.06049270e-004
      1.39825232e-002 -1.06677543e-002 -1.75991422e-003 -1.55485445e-003
      7.87386019e-003 -1.41412800e-003 -1.73499249e-003 -4.72473912e-003
      -9.25458677e-004 4.74444096e-006 -3.88387882e-004 1.30910170e-003
      1.45339989e-003 -1.58750208e-003 6.02945038e-005 7.38080125e-005
      4.58190916e-003 -4.71374579e-003 5.66005619e-005 7.52363849e-005
      3.43658059e-004 -4.93151834e-003 -7.02195801e-004 5.29005565e-003
      1.09594809e-002 -3.77330463e-003 -6.88278815e-003 -3.03388864e-004
      1.27789071e-002 -1.24768158e-002 -6.70092122e-004 3.68001231e-004
      1.39260245e-002 -1.23793678e-002 -1.98267470e-003 4.36018367e-004
      3.39741143e-003 -2.42334441e-003 -1.69954391e-003 7.25477177e-004
      -3.98245919e-003 -1.46619859e-003 7.29229243e-004 4.71942779e-003
      2.64207926e-003 -2.87361862e-003 1.15769952e-004 1.15769952e-004
      1.06729788e-003 -1.88750855e-003 4.10105655e-004 4.10105655e-004
      -5.23213344e-003 -2.60758540e-003 7.08417501e-004 7.13130133e-003
      -5.24570094e-003 -3.14614945e-003 1.50448561e-003 6.88736420e-003
      2.35372479e-003 -2.13870686e-003 -1.15354174e-004 -9.96641247e-005
      4.71908366e-003 -5.00853686e-003 1.44727193e-004 1.44727193e-004
      -1.86198461e-003 -1.74619060e-003 8.31807847e-004 2.77636666e-003
      -3.93386558e-003 -1.20085187e-003 7.06092454e-004 4.42862557e-003
      2.09565158e-003 -2.24883854e-003 7.65931254e-005 7.65931254e-005
